SVM-light Version V6.02
4 # kernel type
3 # kernel parameter -d 
1 # kernel parameter -g 
1 # kernel parameter -s 
1 # kernel parameter -r 
empty# kernel parameter -u 
400 # highest feature index 
400 # number of training documents 
375 # number of support vectors plus 1 
1 # threshold b, each following line is a SV (starting with alpha*y)
0.00010906744386181589103433642318208 1:10576 2:5790 3:9762 4:928 5:918 6:5364 7:9470 8:5798 9:9742 10:5352 11:6762 12:4454 13:6963 14:9210 15:7510 16:2036 17:522 18:8762 19:8812 20:6020 21:7224 22:7132 23:8270 24:9305 25:6356 26:9068 27:7296 28:5376 29:4156 30:8524 31:4506 32:6266 33:7980 34:4354 35:7654 36:2826 37:8178 38:1146 39:8284 40:7686 41:7818 42:7358 43:7827 44:6840 45:6558 46:6182 47:2054 48:7390 49:3782 50:6526 51:9882 52:9056 53:8186 54:0 55:5316 56:2806 57:0 58:5074 59:8176 60:7560 61:9276 62:5956 63:1302 64:7462 65:8926 66:9363 67:8580 68:8514 69:8448 70:9140 71:7502 72:8844 73:6738 74:7772 75:6376 76:0 77:4888 78:9688 79:8390 80:3166 81:10196 82:6128 83:8560 84:4432 85:0 86:4962 87:5158 88:7356 89:6410 90:8094 91:5354 92:9475 93:8070 94:7352 95:6682 96:3918 97:0 98:6536 99:6484 100:0 101:7388 102:7100 103:10054 104:0 105:4330 106:6549 107:10981 108:5672 109:9053 110:8430 111:7924 112:7070 113:7634 114:7580 115:7516 116:4476 117:1624 118:6238 119:9830 120:1330 121:0 122:11174 123:1550 124:8282 125:10158 126:1842 127:1700 128:8994 129:5064 130:8852 131:8140 132:6242 133:7516 134:3544 135:8298 136:6050 137:4370 138:7530 139:4064 140:0 141:4754 142:7580 143:8708 144:5664 145:4138 146:6608 147:5868 148:4840 149:5766 150:9476 151:9431 152:4680 153:7674 154:0 155:7510 156:6090 157:2968 158:9510 159:732 160:4774 161:5710 162:8404 163:7506 164:6764 165:4904 166:6638 167:0 168:4180 169:5540 170:3946 171:4284 172:1868 173:0 174:6396 175:8032 176:9218 177:6938 178:4046 179:4004 180:6460 181:8070 182:1150 183:4874 184:23327 185:9844 186:6126 187:6032 188:5850 189:0 190:6596 191:0 192:4126 193:7916 194:7172 195:6134 196:6298 197:8297 198:5308 199:7470 200:4582 201:12590 202:8740 203:1400 204:0 205:7467 206:5790 207:3666 208:7478 209:7708 210:8452 211:5186 212:552 213:9472 214:4286 215:9600 216:0 217:5276 218:4938 219:3012 220:5378 221:6094 222:4002 223:8462 224:6968 225:6066 226:6474 227:0 228:0 229:2380 230:8820 231:5612 232:5832 233:7552 234:5642 235:6602 236:5588 237:8818 238:7394 239:6720 240:0 241:7450 242:5478 243:4158 244:9200 245:6990 246:7480 247:0 248:5926 249:7864 250:7404 251:9636 252:7072 253:438 254:0 255:8082 256:5088 257:4306 258:6954 259:7088 260:5810 261:9066 262:9742 263:8308 264:0 265:0 266:5138 267:6072 268:8184 269:10078 270:11241 271:9824 272:6064 273:0 274:4064 275:5894 276:0 277:8328 278:3530 279:714 280:0 281:4217 282:6926 283:6332 284:6382 285:5936 286:6774 287:6829 288:5314 289:8000 290:6240 291:5930 292:0 293:6528 294:6912 295:0 296:8912 297:3172 298:6624 299:10116 300:6750 301:5066 302:0 303:13342 304:884 305:6616 306:6134 307:8800 308:10124 309:6498 310:4078 311:0 312:2448 313:8848 314:1992 315:9568 316:4890 317:4530 318:5854 319:5634 320:1752 321:11318 322:0 323:6276 324:2056 325:8248 326:2478 327:8826 328:2894 329:6904 330:5984 331:5979 332:0 333:3690 334:4454 335:0 336:3904 337:0 338:6454 339:5952 340:7616 341:0 342:8330 343:5734 344:862 345:0 346:7428 347:7450 348:5966 349:7032 350:5926 351:348 352:7448 353:1314 354:3684 355:6502 356:5794 357:9366 358:12036 359:7900 360:0 361:7478 362:1584 363:5354 364:9616 365:9516 366:6113 367:3294 368:2734 369:6508 370:4102 371:9330 372:7840 373:5488 374:7032 375:1672 376:6638 377:0 378:8656 379:8806 380:4960 381:1860 382:0 383:3940 384:0 385:9540 386:8320 387:0 388:7558 389:6468 390:4448 391:7736 392:7726 393:8032 394:6604 395:9946 396:5930 397:9450 398:7426 399:6726 400:6476 #184
-3.1211181636350921668292268673639e-05 1:7698 2:5188 3:7658 4:734 5:1300 6:7921 7:12332 8:8376 9:9884 10:10572 11:10678 12:7034 13:9226 14:9410 15:11044 16:4092 17:1730 18:17360 19:7894 20:6358 21:12240 22:9412 23:16518 24:11950 25:10706 26:7240 27:10802 28:13925 29:7940 30:9316 31:6560 32:4750 33:11108 34:6866 35:14448 36:4914 37:8425 38:4730 39:8806 40:9976 41:14399 42:8142 43:9040 44:14776 45:8068 46:8410 47:5962 48:11898 49:6656 50:16134 51:12878 52:14259 53:12230 54:0 55:7988 56:13152 57:0 58:7840 59:15060 60:9478 61:14672 62:12580 63:3040 64:9978 65:9160 66:13918 67:15451 68:14222 69:15458 70:15322 71:13400 72:7894 73:12320 74:9674 75:13535 76:0 77:10250 78:12658 79:10916 80:6028 81:14274 82:12940 83:8880 84:7520 85:0 86:10838 87:7914 88:9998 89:11280 90:12938 91:11978 92:10661 93:8494 94:12328 95:13314 96:8062 97:0 98:11000 99:8724 100:0 101:13022 102:9855 103:12760 104:0 105:11900 106:9574 107:11152 108:8628 109:11074 110:15356 111:7710 112:8638 113:11304 114:9540 115:7658 116:13960 117:4658 118:12648 119:9402 120:862 121:0 122:15532 123:3422 124:9082 125:12600 126:7050 127:2190 128:13706 129:6368 130:11416 131:12946 132:10239 133:12942 134:5844 135:17573 136:8084 137:7144 138:7542 139:8096 140:0 141:7115 142:12712 143:16026 144:13105 145:7854 146:12853 147:7952 148:10878 149:8430 150:13678 151:12365 152:5616 153:7754 154:0 155:12642 156:14640 157:10544 158:11082 159:2688 160:5212 161:13949 162:10104 163:12056 164:6240 165:11210 166:11392 167:0 168:7794 169:12278 170:5812 171:3732 172:4462 173:0 174:10498 175:12914 176:13549 177:13642 178:4214 179:10220 180:13446 181:10775 182:1740 183:8452 184:7840 185:15821 186:15764 187:10344 188:8784 189:0 190:10004 191:0 192:8258 193:15893 194:8562 195:6350 196:11528 197:13636 198:7116 199:7020 200:11764 201:14164 202:12496 203:3948 204:0 205:9340 206:11920 207:12856 208:13008 209:9980 210:11542 211:5912 212:486 213:17359 214:7600 215:13686 216:0 217:14492 218:10324 219:6602 220:10318 221:16340 222:10968 223:8874 224:12128 225:11164 226:13918 227:0 228:0 229:5898 230:13498 231:11454 232:9580 233:15041 234:10892 235:11670 236:11200 237:15466 238:15135 239:16632 240:0 241:14140 242:9194 243:7122 244:8696 245:10420 246:12198 247:0 248:9824 249:9066 250:12528 251:15298 252:10204 253:1812 254:0 255:8076 256:11690 257:5914 258:12882 259:9950 260:7966 261:10672 262:10960 263:16105 264:0 265:0 266:11337 267:12591 268:15153 269:13342 270:18414 271:15650 272:13860 273:0 274:10554 275:12541 276:0 277:14261 278:6658 279:2710 280:0 281:8324 282:12008 283:12046 284:7482 285:12818 286:13922 287:9498 288:13976 289:17936 290:17450 291:11936 292:0 293:12724 294:11798 295:0 296:15872 297:4690 298:8594 299:9842 300:11590 301:9718 302:0 303:16154 304:2150 305:10603 306:10306 307:10189 308:11634 309:12212 310:8986 311:0 312:7162 313:13751 314:4412 315:12005 316:5574 317:9298 318:9089 319:11458 320:2972 321:12620 322:0 323:12752 324:5282 325:8794 326:5270 327:15625 328:7975 329:15256 330:8454 331:9880 332:0 333:7120 334:10850 335:0 336:6840 337:0 338:9320 339:11690 340:13632 341:0 342:11886 343:10938 344:2760 345:0 346:14708 347:12666 348:12278 349:13220 350:11456 351:1346 352:9812 353:3502 354:3930 355:13626 356:14200 357:13264 358:11176 359:11586 360:0 361:10326 362:2372 363:4998 364:13214 365:15628 366:9606 367:8308 368:5482 369:11072 370:5604 371:19770 372:38157 373:13844 374:12516 375:7268 376:7282 377:0 378:13944 379:16544 380:5698 381:3992 382:0 383:9882 384:0 385:13312 386:13766 387:0 388:10918 389:10644 390:5558 391:14517 392:13638 393:10962 394:10990 395:15478 396:7340 397:13904 398:11748 399:13214 400:11507 #372
-6.1561607735918341308654910815079e-05 1:7290 2:5276 3:6942 4:858 5:776 6:8472 7:13862 8:9388 9:7100 10:13108 11:8232 12:7394 13:9774 14:11334 15:12228 16:5187 17:2666 18:16166 19:8890 20:5540 21:14748 22:9838 23:15306 24:10540 25:13532 26:5824 27:9620 28:16158 29:9352 30:10260 31:6380 32:5060 33:10956 34:7256 35:15492 36:9892 37:5848 38:5142 39:7182 40:11483 41:11192 42:7984 43:7606 44:14662 45:8814 46:12832 47:9610 48:10570 49:8746 50:18536 51:14170 52:13779 53:12184 54:0 55:7512 56:20730 57:0 58:7600 59:15872 60:8296 61:13442 62:14390 63:3132 64:9972 65:6964 66:12756 67:12692 68:11598 69:15288 70:11318 71:13580 72:6376 73:10952 74:9750 75:13476 76:0 77:14867 78:10456 79:9610 80:6378 81:13026 82:12452 83:8046 84:12173 85:0 86:15634 87:10116 88:8626 89:13940 90:11434 91:12749 92:10260 93:8150 94:13408 95:16408 96:11816 97:0 98:14506 99:9454 100:0 101:13490 102:9708 103:13302 104:0 105:17960 106:12654 107:8052 108:11250 109:8232 110:12246 111:7170 112:6372 113:11214 114:10708 115:6770 116:18430 117:3728 118:12156 119:5918 120:696 121:0 122:11960 123:6728 124:8898 125:12672 126:14481 127:2250 128:12248 129:6112 130:8974 131:12214 132:15348 133:15698 134:6706 135:14424 136:9482 137:9378 138:9138 139:8990 140:0 141:6616 142:11992 143:13572 144:10892 145:7950 146:13223 147:7532 148:15811 149:9488 150:13534 151:11934 152:5308 153:9726 154:0 155:12570 156:18506 157:14992 158:10476 159:4783 160:4884 161:16989 162:10128 163:15785 164:4094 165:16531 166:10880 167:0 168:9180 169:16603 170:4806 171:3212 172:6740 173:0 174:11988 175:14792 176:11408 177:16164 178:3074 179:17179 180:13424 181:9568 182:1376 183:9250 184:5488 185:11192 186:15526 187:10336 188:9602 189:0 190:11418 191:0 192:8934 193:15796 194:6370 195:5346 196:12728 197:14252 198:7710 199:5428 200:18382 201:10302 202:10986 203:3892 204:0 205:12469 206:13384 207:16398 208:11056 209:8610 210:11924 211:6884 212:444 213:13575 214:7664 215:10596 216:0 217:18082 218:15782 219:8868 220:9738 221:17464 222:12140 223:7260 224:12306 225:10406 226:14754 227:0 228:0 229:7284 230:10146 231:12118 232:10058 233:15698 234:11942 235:14766 236:13957 237:13420 238:15150 239:15140 240:0 241:12702 242:14127 243:6410 244:5370 245:12806 246:12492 247:0 248:14054 249:8302 250:10704 251:13729 252:12766 253:3470 254:0 255:5300 256:15425 257:4248 258:13126 259:14510 260:7510 261:11924 262:8392 263:14962 264:0 265:0 266:17671 267:12672 268:15606 269:12157 270:14140 271:14352 272:15344 273:0 274:13485 275:15601 276:0 277:12702 278:6642 279:4919 280:0 281:10062 282:11932 283:17902 284:6020 285:16685 286:13630 287:10744 288:16578 289:13576 290:14558 291:12574 292:0 293:13552 294:13342 295:0 296:14168 297:4132 298:11568 299:10203 300:13016 301:12596 302:0 303:11366 304:1540 305:12870 306:15438 307:9288 308:8872 309:13961 310:10810 311:0 312:14178 313:13624 314:3846 315:10010 316:8588 317:15330 318:7674 319:15482 320:3998 321:9748 322:0 323:13566 324:5092 325:6432 326:6502 327:15370 328:7114 329:15640 330:12654 331:17357 332:0 333:8352 334:16254 335:0 336:7098 337:0 338:7918 339:14085 340:14162 341:0 342:13244 343:11286 344:2306 345:0 346:16456 347:11214 348:13922 349:16534 350:15818 351:852 352:10974 353:1954 354:3312 355:16522 356:20246 357:10644 358:7110 359:10496 360:0 361:10272 362:2900 363:5018 364:13974 365:14138 366:11596 367:16612 368:4806 369:10984 370:4308 371:15036 372:13844 373:39897 374:11514 375:12203 376:8636 377:0 378:13546 379:17522 380:7272 381:5638 382:0 383:13680 384:0 385:10000 386:13580 387:0 388:11422 389:12978 390:6484 391:15112 392:11666 393:12130 394:10748 395:13052 396:9568 397:13750 398:11404 399:15396 400:11158 #373
0.00077830432231986953258567885072239 1:1270 2:1486 3:2310 4:3107 5:42 6:1140 7:722 8:820 9:1592 10:658 11:1830 12:1260 13:1000 14:1134 15:858 16:90 17:30 18:358 19:1982 20:1956 21:396 22:1320 23:372 24:760 25:612 26:2286 27:924 28:588 29:700 30:1322 31:534 32:2440 33:700 34:1094 35:546 36:628 37:1867 38:156 39:1150 40:1126 41:746 42:2666 43:1820 44:980 45:594 46:1166 47:446 48:480 49:498 50:384 51:498 52:1016 53:770 54:0 55:1414 56:192 57:0 58:396 59:640 60:1512 61:700 62:366 63:60 64:702 65:708 66:896 67:624 68:396 69:496 70:884 71:456 72:1670 73:564 74:1626 75:1014 76:0 77:694 78:714 79:932 80:474 81:1032 82:618 83:1238 84:528 85:0 86:546 87:570 88:690 89:552 90:1122 91:950 92:1288 93:1362 94:908 95:552 96:898 97:0 98:1282 99:1194 100:0 101:744 102:1120 103:1195 104:0 105:432 106:678 107:1106 108:934 109:1118 110:798 111:1538 112:1630 113:838 114:1222 115:1792 116:532 117:162 118:600 119:1926 120:566 121:0 122:724 123:192 124:1300 125:820 126:204 127:452 128:896 129:652 130:1052 131:836 132:964 133:768 134:234 135:534 136:1026 137:1098 138:1906 139:502 140:0 141:360 142:1158 143:728 144:1034 145:432 146:628 147:1120 148:680 149:1398 150:538 151:1240 152:1006 153:1108 154:0 155:760 156:372 157:186 158:1554 159:42 160:1808 161:972 162:1220 163:594 164:914 165:680 166:576 167:0 168:1086 169:854 170:1006 171:1168 172:66 173:0 174:972 175:1048 176:1008 177:772 178:948 179:680 180:700 181:834 182:210 183:574 184:928 185:534 186:486 187:444 188:762 189:0 190:1030 191:0 192:1148 193:1170 194:1572 195:1374 196:606 197:576 198:612 199:1980 200:620 201:1224 202:608 203:156 204:0 205:1048 206:756 207:390 208:954 209:1440 210:1446 211:1448 212:370 213:520 214:518 215:528 216:0 217:388 218:574 219:448 220:414 221:462 222:324 223:544 224:1234 225:192 226:324 227:0 228:0 229:66 230:994 231:632 232:1318 233:578 234:890 235:730 236:916 237:960 238:676 239:354 240:0 241:810 242:928 243:460 244:1134 245:1000 246:890 247:0 248:1100 249:1240 250:1128 251:898 252:1102 253:150 254:0 255:1770 256:532 257:336 258:912 259:834 260:1304 261:806 262:1510 263:742 264:0 265:0 266:684 267:866 268:974 269:1762 270:450 271:516 272:710 273:0 274:630 275:1002 276:0 277:732 278:604 279:24 280:0 281:568 282:276 283:692 284:1958 285:826 286:306 287:804 288:420 289:360 290:468 291:520 292:0 293:658 294:852 295:0 296:414 297:426 298:1414 299:2120 300:1396 301:992 302:0 303:920 304:54 305:630 306:932 307:1374 308:1550 309:1164 310:696 311:0 312:246 313:1134 314:316 315:1394 316:414 317:1072 318:552 319:534 320:466 321:1128 322:0 323:634 324:246 325:978 326:698 327:624 328:318 329:566 330:1376 331:872 332:0 333:486 334:536 335:0 336:444 337:0 338:550 339:660 340:844 341:0 342:872 343:1020 344:90 345:0 346:634 347:924 348:342 349:604 350:714 351:18 352:1520 353:144 354:592 355:498 356:330 357:1048 358:1604 359:976 360:0 361:1054 362:156 363:1740 364:1104 365:600 366:840 367:672 368:132 369:696 370:370 371:390 372:734 373:858 374:570 375:222 376:1040 377:0 378:918 379:438 380:1288 381:186 382:0 383:764 384:0 385:1296 386:862 387:0 388:980 389:748 390:938 391:548 392:668 393:866 394:366 395:546 396:1238 397:486 398:1368 399:504 400:736 #4
0.0014030243638643064181537045698178 1:1054 2:562 3:1134 4:42 5:1939 6:1120 7:1224 8:768 9:1352 10:522 11:800 12:758 13:706 14:684 15:1228 16:174 17:60 18:1264 19:928 20:522 21:990 22:864 23:1104 24:818 25:1519 26:1042 27:854 28:948 29:830 30:1090 31:664 32:662 33:822 34:560 35:956 36:216 37:1040 38:132 39:664 40:1198 41:1230 42:908 43:842 44:614 45:868 46:680 47:198 48:754 49:730 50:764 51:1202 52:1554 53:1088 54:0 55:784 56:318 57:0 58:916 59:1196 60:750 61:1240 62:522 63:330 64:678 65:876 66:686 67:1711 68:1104 69:838 70:1080 71:734 72:870 73:1160 74:950 75:826 76:0 77:548 78:966 79:1066 80:252 81:920 82:626 83:1474 84:480 85:0 86:848 87:498 88:1210 89:810 90:1216 91:1186 92:1084 93:1146 94:740 95:746 96:512 97:0 98:564 99:730 100:0 101:588 102:772 103:1304 104:0 105:572 106:606 107:1354 108:474 109:1396 110:894 111:960 112:1064 113:972 114:690 115:812 116:466 117:196 118:974 119:672 120:72 121:0 122:1162 123:286 124:864 125:690 126:114 127:234 128:634 129:390 130:546 131:648 132:686 133:1066 134:400 135:1076 136:798 137:806 138:838 139:344 140:0 141:318 142:902 143:784 144:504 145:384 146:992 147:630 148:486 149:756 150:1316 151:1254 152:646 153:868 154:0 155:714 156:746 157:264 158:996 159:198 160:562 161:578 162:1310 163:646 164:680 165:574 166:958 167:0 168:366 169:1032 170:546 171:382 172:180 173:0 174:824 175:630 176:850 177:432 178:442 179:186 180:654 181:1162 182:172 183:674 184:918 185:924 186:528 187:900 188:600 189:0 190:732 191:0 192:712 193:950 194:1142 195:762 196:768 197:1258 198:820 199:844 200:628 201:988 202:774 203:126 204:0 205:524 206:850 207:566 208:732 209:862 210:1192 211:744 212:36 213:828 214:598 215:1308 216:0 217:664 218:408 219:578 220:606 221:1008 222:632 223:708 224:712 225:648 226:548 227:0 228:0 229:226 230:1272 231:480 232:772 233:646 234:658 235:752 236:1016 237:1278 238:676 239:790 240:0 241:946 242:470 243:654 244:1544 245:974 246:906 247:0 248:748 249:1432 250:892 251:932 252:480 253:12 254:0 255:1168 256:702 257:906 258:1122 259:968 260:622 261:916 262:1158 263:972 264:0 265:0 266:846 267:1002 268:1200 269:1162 270:972 271:1270 272:832 273:0 274:310 275:1509 276:0 277:766 278:156 279:30 280:0 281:652 282:456 283:734 284:996 285:438 286:574 287:570 288:628 289:824 290:904 291:558 292:0 293:748 294:522 295:0 296:1012 297:420 298:492 299:894 300:712 301:708 302:0 303:1050 304:144 305:804 306:1040 307:1222 308:1580 309:842 310:508 311:0 312:332 313:950 314:240 315:960 316:448 317:262 318:806 319:814 320:216 321:1052 322:0 323:698 324:78 325:620 326:370 327:944 328:328 329:626 330:504 331:468 332:0 333:444 334:546 335:0 336:742 337:0 338:950 339:890 340:804 341:0 342:720 343:608 344:310 345:0 346:928 347:1198 348:730 349:956 350:802 351:18 352:1678 353:240 354:458 355:772 356:842 357:774 358:1368 359:992 360:0 361:912 362:260 363:940 364:1102 365:1052 366:852 367:330 368:240 369:848 370:664 371:1124 372:1300 373:776 374:1340 375:226 376:1038 377:0 378:726 379:1258 380:698 381:204 382:0 383:418 384:0 385:1420 386:722 387:0 388:932 389:462 390:360 391:1114 392:1144 393:1182 394:622 395:1050 396:850 397:1382 398:828 399:698 400:862 #5
5.9656680677004384426818928144343e-05 1:8576 2:6124 3:8304 4:1008 5:850 6:6794 7:13214 8:7479 9:9864 10:9638 11:9304 12:4398 13:9238 14:9906 15:10514 16:4368 17:756 18:12574 19:10364 20:6510 21:12644 22:9564 23:17372 24:11940 25:9274 26:6970 27:11762 28:11598 29:5142 30:11370 31:7396 32:6068 33:12664 34:5459 35:15453 36:5070 37:8894 38:3334 39:10566 40:9428 41:13618 42:9592 43:10242 44:11424 45:13855 46:10008 47:5870 48:11236 49:7044 50:16207 51:15688 52:14234 53:12434 54:0 55:7056 56:9944 57:0 58:9010 59:13828 60:10446 61:16412 62:12708 63:3112 64:10968 65:12966 66:18020 67:11702 68:17602 69:14694 70:17432 71:15484 72:12285 73:11868 74:10146 75:9578 76:0 77:9618 78:14125 79:13378 80:4552 81:15476 82:12092 83:10200 84:7898 85:0 86:10686 87:6074 88:10572 89:12274 90:11830 91:8126 92:11320 93:9524 94:13604 95:12842 96:6192 97:0 98:11100 99:9911 100:0 101:14189 102:8932 103:13162 104:0 105:10300 106:9122 107:13381 108:8934 109:10434 110:16804 111:10330 112:6812 113:12166 114:11296 115:9398 116:11547 117:5152 118:9868 119:9158 120:1750 121:0 122:17168 123:3072 124:10123 125:16680 126:5508 127:2790 128:15646 129:5188 130:12844 131:16090 132:11434 133:13087 134:5696 135:15914 136:7226 137:5060 138:8066 139:8538 140:0 141:7724 142:12480 143:17694 144:12234 145:6126 146:11492 147:6136 148:8440 149:7664 150:14322 151:12648 152:5770 153:7834 154:0 155:14498 156:11227 157:8982 158:11610 159:1656 160:5006 161:10868 162:10124 163:12208 164:6910 165:10478 166:11864 167:0 168:6706 169:13192 170:7044 171:3514 172:3834 173:0 174:7202 175:13338 176:41405 177:13641 178:3906 179:10750 180:13772 181:9812 182:850 183:7874 184:9218 185:15634 186:13472 187:8672 188:7290 189:0 190:10946 191:0 192:6076 193:14268 194:8434 195:5956 196:9748 197:12306 198:7218 199:6596 200:12089 201:16876 202:14816 203:3002 204:0 205:8718 206:10552 207:11004 208:12165 209:11518 210:11464 211:6456 212:464 213:19141 214:6570 215:13398 216:0 217:14062 218:9078 219:6067 220:12140 221:13128 222:7682 223:10914 224:13074 225:12056 226:12738 227:0 228:0 229:5744 230:12808 231:10774 232:8094 233:14558 234:9288 235:10992 236:8652 237:14662 238:14278 239:11724 240:0 241:13726 242:7944 243:5772 244:8576 245:9560 246:14762 247:0 248:7174 249:8454 250:12594 251:17480 252:11768 253:1704 254:0 255:7790 256:11632 257:6893 258:13334 259:10014 260:9594 261:12425 262:14117 263:14778 264:0 265:0 266:10252 267:11060 268:14298 269:13714 270:19026 271:17208 272:10536 273:0 274:8024 275:11536 276:0 277:12552 278:7178 279:2338 280:0 281:5500 282:13416 283:11492 284:8308 285:12372 286:15706 287:9314 288:11810 289:17056 290:12560 291:10374 292:0 293:13635 294:10563 295:0 296:18838 297:4671 298:12139 299:11508 300:12124 301:7676 302:0 303:19604 304:1812 305:11944 306:9666 307:11128 308:11976 309:13142 310:7910 311:0 312:4070 313:15120 314:3514 315:12060 316:5324 317:8352 318:9800 319:7758 320:1892 321:14590 322:0 323:14190 324:5500 325:11623 326:5254 327:13472 328:6074 329:15510 330:12018 331:9644 332:0 333:5710 334:8504 335:0 336:6226 337:0 338:9642 339:11096 340:14152 341:0 342:13244 343:9542 344:1842 345:0 346:12934 347:10832 348:15328 349:12918 350:9974 351:704 352:8916 353:2850 354:4156 355:12178 356:11484 357:18204 358:13806 359:12092 360:0 361:11752 362:3196 363:4330 364:14742 365:14614 366:7870 367:5894 368:5220 369:12911 370:7172 371:18276 372:13549 373:11408 374:11046 375:4916 376:8698 377:0 378:14392 379:17052 380:6638 381:4502 382:0 383:10142 384:0 385:12644 386:13870 387:0 388:12024 389:10148 390:5518 391:16230 392:13755 393:10922 394:10120 395:16400 396:7038 397:12832 398:12018 399:10172 400:9192 #176
-0.00013525772459742032346324824843009 1:13049 2:10822 3:19138 4:1550 5:1580 6:7652 7:13487 8:10270 9:16718 10:7686 11:14004 12:6874 13:11520 14:16803 15:13322 16:2986 17:528 18:12396 19:14424 20:11502 21:10911 22:12226 23:12208 24:12399 25:9452 26:15206 27:12869 28:10022 29:6162 30:12260 31:6310 32:11210 33:8686 34:6696 35:10150 36:5452 37:9792 38:3454 39:7226 40:10852 41:12142 42:15316 43:10316 44:10650 45:9926 46:10208 47:4226 48:9032 49:5784 50:11908 51:13718 52:13700 53:13330 54:0 55:8338 56:7550 57:0 58:8768 59:12444 60:14520 61:13170 62:8210 63:1830 64:11258 65:11958 66:11852 67:10840 68:12496 69:11695 70:13412 71:9532 72:16466 73:10348 74:13010 75:11902 76:0 77:9436 78:13963 79:13908 80:5974 81:16079 82:10756 83:12756 84:6450 85:0 86:7058 87:7812 88:10936 89:9878 90:14424 91:10076 92:13570 93:14032 94:13053 95:10520 96:8072 97:0 98:10938 99:10310 100:0 101:10369 102:11006 103:11074 104:0 105:8232 106:10043 107:15154 108:11426 109:13830 110:15458 111:10986 112:10756 113:13095 114:11548 115:10846 116:8126 117:3270 118:9478 119:16598 120:4622 121:0 122:15234 123:2922 124:11124 125:13657 126:3554 127:1978 128:14380 129:7982 130:12178 131:13050 132:9482 133:11776 134:4774 135:13434 136:11602 137:8222 138:12592 139:7076 140:0 141:7454 142:12232 143:13620 144:12488 145:6654 146:9504 147:9672 148:7282 149:12548 150:10624 151:15352 152:6090 153:13402 154:0 155:12271 156:9408 157:5384 158:14246 159:1988 160:6696 161:9038 162:13512 163:11680 164:10796 165:7854 166:11480 167:0 168:8638 169:10840 170:6100 171:8044 172:3501 173:0 174:11090 175:15749 176:11976 177:12470 178:6502 179:8782 180:12696 181:11714 182:2398 183:8896 184:10124 185:11808 186:11786 187:8484 188:8894 189:0 190:12304 191:0 192:9266 193:13204 194:13346 195:9794 196:9798 197:11196 198:8038 199:12022 200:8824 201:17980 202:12760 203:2666 204:0 205:11136 206:10558 207:7448 208:11646 209:14794 210:14162 211:7926 212:420 213:15698 214:6596 215:12498 216:0 217:10822 218:9047 219:5350 220:8374 221:10636 222:6794 223:11680 224:11734 225:8484 226:11081 227:0 228:0 229:3560 230:12816 231:8200 232:11302 233:11144 234:10266 235:11642 236:8885 237:14910 238:11900 239:10452 240:0 241:12934 242:7988 243:5942 244:15626 245:10126 246:10714 247:0 248:6544 249:11656 250:11124 251:11756 252:10742 253:1174 254:0 255:15298 256:8566 257:6962 258:8878 259:11680 260:7612 261:13246 262:16300 263:11972 264:0 265:0 266:7688 267:11116 268:12518 269:15130 270:13996 271:14128 272:10354 273:0 274:7054 275:9918 276:0 277:13614 278:6922 279:1602 280:0 281:6726 282:8060 283:10862 284:9538 285:9096 286:9952 287:12253 288:10536 289:12778 290:11446 291:7256 292:0 293:10554 294:11489 295:0 296:11676 297:4996 298:10270 299:19065 300:11804 301:7144 302:0 303:17768 304:1272 305:10848 306:10128 307:14266 308:40345 309:12936 310:7952 311:0 312:4724 313:15697 314:2706 315:15282 316:7238 317:7668 318:8483 319:8264 320:2326 321:17170 322:0 323:10912 324:4550 325:11374 326:4616 327:12592 328:5308 329:10064 330:9616 331:10856 332:0 333:5192 334:7900 335:0 336:7400 337:0 338:9844 339:9752 340:10754 341:0 342:11316 343:10998 344:1778 345:0 346:11356 347:12728 348:8568 349:8866 350:9706 351:802 352:13388 353:2528 354:5038 355:9212 356:8246 357:13068 358:20047 359:11912 360:0 361:12352 362:1860 363:7958 364:16212 365:13297 366:9426 367:7784 368:3726 369:11222 370:4966 371:13416 372:11634 373:8872 374:10452 375:3746 376:8572 377:0 378:11990 379:12178 380:8202 381:4328 382:0 383:9458 384:0 385:14358 386:11554 387:0 388:12777 389:10008 390:6052 391:10504 392:13828 393:12480 394:8546 395:13020 396:10452 397:13206 398:12406 399:9972 400:10302 #308
-0.00011657786638173496854796462596227 1:16116 2:21224 3:15668 4:1448 5:744 6:19664 7:7052 8:17186 9:15249 10:14696 11:11288 12:22290 13:11776 14:12114 15:9178 16:1072 17:3074 18:4660 19:13528 20:21147 21:8896 22:12726 23:4046 24:11194 25:11434 26:18277 27:9327 28:7438 29:20649 30:9220 31:7252 32:26641 33:7650 34:18634 35:5064 36:6722 37:18428 38:3956 39:15208 40:11080 41:8362 42:12390 43:12528 44:5498 45:8268 46:11976 47:2720 48:9964 49:15078 50:3634 51:7158 52:7526 53:8476 54:0 55:19305 56:4658 57:0 58:6764 59:4164 60:11576 61:6743 62:5886 63:2446 64:6918 65:7652 66:5140 67:7898 68:6442 69:4466 70:4622 71:5122 72:14709 73:11314 74:9886 75:6630 76:0 77:9718 78:8068 79:11026 80:5316 81:5522 82:4754 83:15420 84:19776 85:0 86:10374 87:4634 88:15510 89:7642 90:6444 91:11334 92:11130 93:11922 94:3450 95:7424 96:15834 97:0 98:6148 99:13179 100:0 101:4728 102:12700 103:8750 104:0 105:5892 106:11696 107:10466 108:10177 109:12102 110:4268 111:17825 112:21604 113:6500 114:8196 115:15512 116:4318 117:1380 118:5426 119:9914 120:2772 121:0 122:4890 123:3584 124:11142 125:5316 126:7395 127:4236 128:4720 129:4298 130:9953 131:5522 132:8662 133:4774 134:3704 135:4474 136:16198 137:24900 138:12312 139:3984 140:0 141:3228 142:5602 143:4356 144:6762 145:5216 146:9395 147:20187 148:10384 149:14234 150:7364 151:7130 152:24812 153:13616 154:0 155:5542 156:7264 157:3340 158:9262 159:2708 160:26142 161:5662 162:12778 163:6324 164:7786 165:7572 166:3770 167:0 168:16274 169:6498 170:6778 171:10758 172:1232 173:0 174:15042 175:4424 176:6456 177:4018 178:8945 179:7516 180:4884 181:12232 182:1616 183:4434 184:5186 185:5958 186:2992 187:13822 188:16300 189:0 190:11264 191:0 192:19706 193:4148 194:16571 195:11978 196:10304 197:7240 198:6612 199:20158 200:4576 201:6018 202:7884 203:750 204:0 205:10402 206:10388 207:8278 208:7592 209:10152 210:9005 211:44669 212:1518 213:2816 214:2642 215:6030 216:0 217:5018 218:7174 219:5242 220:4262 221:4074 222:12068 223:2600 224:6520 225:6056 226:5666 227:0 228:0 229:1800 230:8150 231:7998 232:11028 233:5220 234:9440 235:6186 236:12466 237:4926 238:2780 239:6270 240:0 241:4424 242:11610 243:5086 244:10702 245:12886 246:8620 247:0 248:11282 249:15628 250:7978 251:4594 252:7400 253:724 254:0 255:18690 256:5708 257:4032 258:8460 259:6386 260:19184 261:10302 262:6248 263:4658 264:0 265:0 266:11376 267:8516 268:4570 269:6674 270:2376 271:3958 272:7112 273:0 274:12374 275:9542 276:0 277:4330 278:2922 279:282 280:0 281:4518 282:3350 283:4738 284:17368 285:6044 286:5751 287:13820 288:5042 289:2678 290:4826 291:10664 292:0 293:6582 294:8160 295:0 296:4038 297:2148 298:9912 299:14078 300:6124 301:8614 302:0 303:4362 304:270 305:10184 306:8080 307:11813 308:7926 309:6110 310:3886 311:0 312:3652 313:6546 314:7322 315:8010 316:4564 317:7440 318:4518 319:8330 320:2896 321:8720 322:0 323:5102 324:960 325:4626 326:4924 327:3908 328:1546 329:3814 330:8220 331:4730 332:0 333:6904 334:10754 335:0 336:4340 337:0 338:4090 339:7998 340:5638 341:0 342:8660 343:8938 344:1392 345:0 346:4570 347:9014 348:4116 349:7092 350:7658 351:784 352:9990 353:3456 354:8444 355:6874 356:5090 357:5840 358:8938 359:11014 360:0 361:10112 362:1852 363:22151 364:5454 365:4220 366:10876 367:7678 368:2144 369:7396 370:3786 371:3464 372:5912 373:6884 374:8798 375:7748 376:20932 377:0 378:7270 379:3194 380:16512 381:3468 382:0 383:5716 384:0 385:9162 386:6750 387:0 388:8958 389:7774 390:21168 391:5374 392:6598 393:9568 394:8899 395:4714 396:13296 397:5254 398:7338 399:6962 400:11500 #211
-10 1:0 2:0 3:0 4:0 5:0 6:0 7:0 8:0 9:0 10:0 11:0 12:0 13:0 14:0 15:0 16:0 17:0 18:0 19:0 20:0 21:0 22:0 23:0 24:0 25:0 26:0 27:0 28:0 29:0 30:0 31:0 32:0 33:0 34:0 35:0 36:0 37:0 38:0 39:0 40:0 41:0 42:0 43:0 44:0 45:0 46:0 47:0 48:0 49:0 50:0 51:0 52:0 53:0 54:0 55:0 56:0 57:0 58:0 59:0 60:0 61:0 62:0 63:0 64:0 65:0 66:0 67:0 68:0 69:0 70:0 71:0 72:0 73:0 74:0 75:0 76:0 77:0 78:0 79:0 80:0 81:0 82:0 83:0 84:0 85:0 86:0 87:0 88:0 89:0 90:0 91:0 92:0 93:0 94:0 95:0 96:0 97:0 98:0 99:0 100:0 101:0 102:0 103:0 104:0 105:0 106:0 107:0 108:0 109:0 110:0 111:0 112:0 113:0 114:0 115:0 116:0 117:0 118:0 119:0 120:0 121:0 122:0 123:0 124:0 125:0 126:0 127:0 128:0 129:0 130:0 131:0 132:0 133:0 134:0 135:0 136:0 137:0 138:0 139:0 140:0 141:0 142:0 143:0 144:0 145:0 146:0 147:0 148:0 149:0 150:0 151:0 152:0 153:0 154:0 155:0 156:0 157:0 158:0 159:0 160:0 161:0 162:0 163:0 164:0 165:0 166:0 167:0 168:0 169:0 170:0 171:0 172:0 173:0 174:0 175:0 176:0 177:0 178:0 179:0 180:0 181:0 182:0 183:0 184:0 185:0 186:0 187:0 188:0 189:0 190:0 191:0 192:0 193:0 194:0 195:0 196:0 197:0 198:0 199:0 200:0 201:0 202:0 203:0 204:0 205:0 206:0 207:0 208:0 209:0 210:0 211:0 212:0 213:0 214:0 215:0 216:0 217:0 218:0 219:0 220:0 221:0 222:0 223:0 224:0 225:0 226:0 227:0 228:0 229:0 230:0 231:0 232:0 233:0 234:0 235:0 236:0 237:0 238:0 239:0 240:0 241:0 242:0 243:0 244:0 245:0 246:0 247:0 248:0 249:0 250:0 251:0 252:0 253:0 254:0 255:0 256:0 257:0 258:0 259:0 260:0 261:0 262:0 263:0 264:0 265:0 266:0 267:0 268:0 269:0 270:0 271:0 272:0 273:0 274:0 275:0 276:0 277:0 278:0 279:0 280:0 281:0 282:0 283:0 284:0 285:0 286:0 287:0 288:0 289:0 290:0 291:0 292:0 293:0 294:0 295:0 296:0 297:0 298:0 299:0 300:0 301:0 302:0 303:0 304:0 305:0 306:0 307:0 308:0 309:0 310:0 311:0 312:0 313:0 314:0 315:0 316:0 317:0 318:0 319:0 320:0 321:0 322:0 323:0 324:0 325:0 326:0 327:0 328:0 329:0 330:0 331:0 332:0 333:0 334:0 335:0 336:0 337:0 338:0 339:0 340:0 341:0 342:0 343:0 344:0 345:0 346:0 347:0 348:0 349:0 350:0 351:0 352:0 353:0 354:0 355:0 356:0 357:0 358:0 359:0 360:0 361:0 362:0 363:0 364:0 365:0 366:0 367:0 368:0 369:0 370:0 371:0 372:0 373:0 374:0 375:0 376:0 377:0 378:0 379:0 380:0 381:0 382:0 383:0 384:0 385:0 386:0 387:0 388:0 389:0 390:0 391:0 392:0 393:0 394:0 395:0 396:0 397:0 398:0 399:0 400:0 #360
9.3645613986831878418522212559338e-05 1:7194 2:6580 3:7724 4:700 5:654 6:5644 7:10448 8:9139 9:9062 10:9894 11:10566 12:5942 13:9868 14:9590 15:11392 16:5572 17:714 18:15248 19:9050 20:6504 21:12456 22:9838 23:14708 24:12041 25:9746 26:6880 27:12882 28:13643 29:3736 30:11538 31:4590 32:4854 33:8758 34:5552 35:14654 36:7380 37:6080 38:4308 39:6652 40:6678 41:12668 42:9964 43:9070 44:14312 45:9006 46:10566 47:8120 48:8966 49:4700 50:18192 51:14610 52:13067 53:9926 54:0 55:5472 56:16687 57:0 58:9274 59:16228 60:10082 61:14414 62:13366 63:2122 64:11844 65:8216 66:14210 67:11264 68:14006 69:15226 70:14960 71:14442 72:8514 73:9570 74:12799 75:13440 76:0 77:11512 78:9898 79:10096 80:5608 81:14166 82:14276 83:7212 84:6562 85:0 86:8740 87:8726 88:7798 89:12338 90:12488 91:9684 92:10718 93:7954 94:13648 95:12878 96:7708 97:0 98:15035 99:7688 100:0 101:15262 102:9188 103:10674 104:0 105:13963 106:11150 107:9958 108:10920 109:8714 110:15560 111:5648 112:6048 113:14711 114:11804 115:8782 116:15276 117:4538 118:9726 119:9454 120:1090 121:0 122:14416 123:3936 124:8692 125:13202 126:7312 127:1938 128:17856 129:8322 130:10700 131:16120 132:11928 133:16300 134:6266 135:15408 136:7602 137:5110 138:9758 139:9164 140:0 141:8586 142:14558 143:16214 144:14365 145:8425 146:10986 147:6302 148:11420 149:7800 150:10584 151:12678 152:4216 153:9192 154:0 155:14036 156:14552 157:11996 158:11300 159:1842 160:4288 161:15168 162:10366 163:14048 164:4800 165:13006 166:12486 167:0 168:7320 169:15101 170:5732 171:4380 172:5960 173:0 174:8434 175:17384 176:13772 177:17404 178:3818 179:12748 180:40311 181:8080 182:1476 183:8088 184:6460 185:13066 186:18234 187:8866 188:8527 189:0 190:12030 191:0 192:6170 193:16548 194:7920 195:5780 196:11194 197:14152 198:7610 199:6052 200:16540 201:14688 202:13606 203:4638 204:0 205:11136 206:11386 207:13278 208:11440 209:12824 210:14407 211:4884 212:372 213:19701 214:7622 215:12026 216:0 217:16412 218:13994 219:6474 220:10216 221:16140 222:8076 223:10624 224:14493 225:11381 226:16406 227:0 228:0 229:6142 230:11766 231:12166 232:9446 233:15378 234:12218 235:13796 236:9632 237:14864 238:18902 239:13328 240:0 241:15026 242:11084 243:4744 244:7860 245:7336 246:11856 247:0 248:8934 249:7668 250:11182 251:15282 252:11682 253:2902 254:0 255:6988 256:15580 257:5258 258:11582 259:13428 260:6981 261:11015 262:14285 263:15088 264:0 265:0 266:11378 267:11256 268:15568 269:14012 270:16978 271:17565 272:12702 273:0 274:8848 275:10076 276:0 277:15475 278:9874 279:3810 280:0 281:8034 282:12144 283:17830 284:5592 285:13696 286:14290 287:10124 288:17646 289:16642 290:14894 291:9560 292:0 293:13284 294:11128 295:0 296:17445 297:5389 298:11286 299:9462 300:15146 301:8966 302:0 303:14066 304:1420 305:11324 306:12122 307:8392 308:12696 309:15343 310:9750 311:0 312:9346 313:13990 314:2934 315:12364 316:7124 317:12470 318:8638 319:10202 320:3148 321:13778 322:0 323:13786 324:8146 325:8486 326:4782 327:15912 328:7106 329:14992 330:13020 331:15628 332:0 333:6584 334:10070 335:0 336:6232 337:0 338:9380 339:11042 340:14871 341:0 342:11710 343:11598 344:3002 345:0 346:16540 347:10742 348:15003 349:10080 350:10726 351:1002 352:10458 353:3190 354:3552 355:14989 356:15276 357:14282 358:10900 359:11428 360:0 361:11472 362:3060 363:4032 364:15441 365:14774 366:9664 367:12804 368:5062 369:12586 370:5238 371:17244 372:13446 373:13424 374:9856 375:6830 376:5284 377:0 378:12414 379:18074 380:4576 381:5146 382:0 383:13504 384:0 385:11122 386:14768 387:0 388:11772 389:13798 390:4948 391:13138 392:13376 393:11018 394:8572 395:15263 396:9710 397:14908 398:13106 399:13170 400:10800 #180
9.2875899090442674984301196783321e-05 1:6418 2:5062 3:7110 4:772 5:432 6:3656 7:13668 8:6218 9:8024 10:9376 11:10008 12:5222 13:9496 14:9540 15:14755 16:6602 17:560 18:17252 19:10077 20:5756 21:14662 22:8631 23:19622 24:15076 25:9778 26:4992 27:13360 28:13040 29:2898 30:12986 31:4704 32:3944 33:11146 34:4256 35:18868 36:9120 37:4630 38:4218 39:4862 40:5808 41:11884 42:8630 43:7908 44:16956 45:7284 46:11847 47:10560 48:10560 49:2668 50:23240 51:15310 52:12612 53:11234 54:0 55:4708 56:21944 57:0 58:7590 59:20208 60:9420 61:16319 62:15692 63:2298 64:12382 65:10479 66:18698 67:12916 68:17520 69:19836 70:17830 71:18056 72:7302 73:8446 74:10024 75:16454 76:0 77:14345 78:12404 79:9158 80:5100 81:19351 82:14727 83:6066 84:4600 85:0 86:10400 87:10650 88:6696 89:17990 90:15377 91:9338 92:9486 93:6776 94:18422 95:16515 96:8006 97:0 98:16036 99:6034 100:0 101:17572 102:8393 103:11204 104:0 105:16534 106:12050 107:9810 108:11172 109:6894 110:21675 111:5156 112:4644 113:15341 114:13640 115:7062 116:21754 117:5422 118:11928 119:7946 120:1112 121:0 122:17864 123:4538 124:8022 125:17722 126:7772 127:890 128:18264 129:8420 130:12226 131:18048 132:15748 133:18418 134:7630 135:18180 136:5920 137:3356 138:8172 139:9578 140:0 141:9241 142:14856 143:19942 144:18358 145:7552 146:14162 147:5260 148:12814 149:7386 150:15207 151:14236 152:2620 153:7342 154:0 155:17204 156:19659 157:16961 158:11974 159:1524 160:3004 161:19696 162:10126 163:17316 164:4278 165:14623 166:16273 167:0 168:6724 169:18574 170:5525 171:4444 172:9134 173:0 174:8276 175:21964 176:13641 177:44385 178:3070 179:15206 180:17404 181:9246 182:1386 183:10110 184:6938 185:15300 186:24083 187:8640 188:8048 189:0 190:13246 191:0 192:6714 193:21910 194:5152 195:5892 196:10680 197:15786 198:6864 199:5090 200:22742 201:15816 202:15554 203:5938 204:0 205:13916 206:11692 207:15906 208:12684 209:10212 210:14528 211:4018 212:304 213:21160 214:11026 215:12336 216:0 217:19870 218:16656 219:7340 220:11964 221:20002 222:6122 223:13293 224:14548 225:14246 226:16470 227:0 228:0 229:7706 230:10720 231:12990 232:9558 233:18727 234:12326 235:15694 236:10822 237:18082 238:22793 239:16471 240:0 241:18006 242:11820 243:5392 244:6924 245:8334 246:12690 247:0 248:10042 249:5428 250:12688 251:20669 252:13686 253:3570 254:0 255:4844 256:16646 257:4738 258:13178 259:13122 260:4740 261:12398 262:13096 263:21284 264:0 265:0 266:11768 267:11362 268:17116 269:14384 270:23416 271:21626 272:16963 273:0 274:9028 275:9806 276:0 277:16751 278:10482 279:7437 280:0 281:10420 282:17228 283:22702 284:4382 285:17632 286:17990 287:8580 288:21784 289:23167 290:16828 291:8502 292:0 293:15886 294:13168 295:0 296:20598 297:4548 298:9772 299:12348 300:17761 301:9683 302:0 303:21238 304:1688 305:11982 306:13744 307:8168 308:12470 309:14704 310:11420 311:0 312:14964 313:17150 314:1982 315:12740 316:7516 317:17922 318:8624 319:10228 320:4206 321:13461 322:0 323:17202 324:9108 325:9429 326:5802 327:16428 328:9604 329:21890 330:17238 331:21450 332:0 333:7472 334:9842 335:0 336:7698 337:0 338:9406 339:11022 340:19529 341:0 342:17112 343:13108 344:2246 345:0 346:22656 347:10676 348:16894 349:10848 350:13204 351:880 352:11832 353:1472 354:3006 355:16686 356:20384 357:17328 358:8468 359:9704 360:0 361:8682 362:2770 363:2786 364:19488 365:20845 366:9032 367:18297 368:6811 369:13984 370:4962 371:22078 372:13642 373:16164 374:9202 375:7262 376:3508 377:0 378:17567 379:22658 380:4012 381:5938 382:0 383:17373 384:0 385:11506 386:17418 387:0 388:12962 389:16672 390:3062 391:15470 392:15072 393:11574 394:7694 395:21466 396:7910 397:17936 398:15116 399:14374 400:9692 #177
-2.1619482562028945145165756414052e-05 1:7058 2:5932 3:7840 4:872 5:468 6:4380 7:14773 8:8902 9:7762 10:8974 11:10196 12:6732 13:10089 14:12078 15:14110 16:7496 17:1122 18:12550 19:10673 20:5044 21:14772 22:10096 23:14240 24:10886 25:11965 26:5412 27:14007 28:15970 29:3378 30:15786 31:3998 32:4563 33:11199 34:7130 35:18862 36:12864 37:5888 38:4724 39:5142 40:5158 41:12446 42:9130 43:7554 44:16452 45:8774 46:12652 47:12246 48:7244 49:4324 50:17750 51:13090 52:9334 53:9146 54:0 55:6014 56:24846 57:0 58:8380 59:20521 60:10190 61:14500 62:11834 63:2700 64:10760 65:6672 66:15764 67:9670 68:12880 69:18656 70:12090 71:15124 72:9506 73:8634 74:12358 75:17747 76:0 77:17182 78:9830 79:7434 80:5442 81:17800 82:12756 83:7315 84:7626 85:0 86:13804 87:11124 88:7568 89:20132 90:14483 91:11228 92:11584 93:7536 94:18238 95:17430 96:12736 97:0 98:19674 99:7356 100:0 101:13204 102:10478 103:10574 104:0 105:20772 106:14100 107:8670 108:13530 109:8760 110:16374 111:5502 112:5940 113:14816 114:12668 115:7326 116:22462 117:5598 118:10670 119:7208 120:1484 121:0 122:14332 123:7202 124:9236 125:18226 126:11828 127:1300 128:13996 129:11362 130:9542 131:13010 132:23658 133:20923 134:6208 135:14154 136:10810 137:3356 138:10114 139:10048 140:0 141:8246 142:18936 143:15212 144:15892 145:9028 146:14770 147:6072 148:14464 149:9552 150:16106 151:13878 152:3322 153:9106 154:0 155:13512 156:26489 157:16150 158:11516 159:1256 160:3354 161:17048 162:9890 163:23063 164:5080 165:20466 166:14838 167:0 168:9306 169:18054 170:5374 171:5868 172:12264 173:0 174:9076 175:23839 176:9644 177:21450 178:3682 179:17548 180:15628 181:10149 182:2090 183:12418 184:5979 185:10388 186:20696 187:8456 188:9154 189:0 190:17149 191:0 192:7812 193:16995 194:6632 195:5676 196:15270 197:14958 198:8718 199:4902 200:24712 201:11270 202:13806 203:5856 204:0 205:17209 206:13480 207:17732 208:12136 209:10356 210:13008 211:4730 212:252 213:17036 214:7542 215:8755 216:0 217:17016 218:23069 219:8744 220:10456 221:18052 222:7367 223:11480 224:14502 225:11668 226:15572 227:0 228:0 229:8058 230:9946 231:12594 232:10476 233:18242 234:14670 235:16996 236:10290 237:13906 238:22704 239:13540 240:0 241:14482 242:17152 243:6408 244:6374 245:7826 246:13152 247:0 248:12386 249:7156 250:12214 251:15036 252:19803 253:7733 254:0 255:6288 256:18518 257:4072 258:12420 259:22586 260:5364 261:13374 262:15342 263:16640 264:0 265:0 266:15498 267:11290 268:15218 269:11060 270:16774 271:14526 272:17270 273:0 274:14004 275:14033 276:0 277:16131 278:11012 279:6203 280:0 281:10276 282:11142 283:31750 284:5234 285:19466 286:15534 287:11236 288:19342 289:17476 290:12332 291:7772 292:0 293:13874 294:13019 295:0 296:16048 297:3124 298:18113 299:12310 300:18418 301:12522 302:0 303:13136 304:950 305:13302 306:20171 307:11228 308:10856 309:14364 310:13814 311:0 312:26056 313:15166 314:1912 315:11548 316:11262 317:31939 318:11988 319:15364 320:5644 321:12080 322:0 323:17661 324:8278 325:8304 326:5432 327:14992 328:9293 329:19844 330:24094 331:56455 332:0 333:9830 334:15890 335:0 336:6376 337:0 338:9847 339:11643 340:21363 341:0 342:19288 343:11890 344:3648 345:0 346:22241 347:13202 348:13720 349:11110 350:13526 351:940 352:12562 353:2096 354:3378 355:16522 356:27109 357:13314 358:8018 359:9598 360:0 361:8346 362:3084 363:3362 364:18740 365:15014 366:10688 367:30678 368:4932 369:12990 370:4358 371:13790 372:9880 373:17357 374:9954 375:11928 376:4590 377:0 378:12990 379:17576 380:5194 381:6112 382:0 383:19230 384:0 385:13150 386:13272 387:0 388:15537 389:18822 390:3042 391:15282 392:14349 393:12520 394:6778 395:18184 396:8608 397:19748 398:16264 399:13880 400:9824 #331
-8.0302230517292392890892072099263e-05 1:9514 2:7755 3:14071 4:834 5:968 6:6830 7:12894 8:9958 9:11108 10:8858 11:9874 12:8066 13:9010 14:12864 15:12078 16:5000 17:1680 18:12939 19:10971 20:8922 21:12652 22:11116 23:11140 24:8580 25:11452 26:10210 27:11704 28:13743 29:5658 30:12604 31:5328 32:7152 33:8942 34:7054 35:13764 36:8618 37:7688 38:4090 39:6572 40:7974 41:11326 42:10410 43:10430 44:12888 45:8752 46:10050 47:9060 48:8680 49:7870 50:14048 51:11712 52:11088 53:10520 54:0 55:8765 56:17054 57:0 58:9487 59:14916 60:9448 61:12502 62:10910 63:2316 64:8318 65:7204 66:12140 67:9332 68:11068 69:14155 70:8192 71:11566 72:9908 73:10400 74:12191 75:12486 76:0 77:12732 78:9140 79:10778 80:4902 81:12678 82:10092 83:9494 84:8938 85:0 86:10536 87:9530 88:7946 89:13677 90:11464 91:10108 92:11388 93:9894 94:15920 95:13106 96:10792 97:0 98:15272 99:9394 100:0 101:9022 102:10780 103:10402 104:0 105:14194 106:11422 107:11130 108:11782 109:10162 110:13146 111:8112 112:8979 113:11674 114:10524 115:8912 116:16307 117:3416 118:9240 119:10308 120:2478 121:0 122:12010 123:5090 124:9184 125:11784 126:9183 127:2476 128:10894 129:8454 130:8090 131:10976 132:15489 133:15182 134:5180 135:15013 136:12289 137:7268 138:10636 139:8946 140:0 141:6356 142:12986 143:11650 144:11038 145:7610 146:10976 147:7842 148:11072 149:10866 150:12869 151:11114 152:4752 153:11524 154:0 155:10834 156:17673 157:12294 158:11720 159:2478 160:5122 161:13354 162:9416 163:15679 164:6512 165:14280 166:11992 167:0 168:9140 169:13328 170:5376 171:5184 172:7882 173:0 174:11982 175:17379 176:10014 177:13122 178:5032 179:13456 180:13428 181:9828 182:2684 183:10032 184:7088 185:8676 186:14494 187:9224 188:8440 189:0 190:12483 191:0 192:8828 193:13468 194:9824 195:5734 196:13228 197:13170 198:8596 199:8282 200:17437 201:9822 202:10976 203:4016 204:0 205:12490 206:12956 207:13316 208:9248 209:10910 210:11742 211:6386 212:726 213:13676 214:4184 215:8860 216:0 217:15738 218:15778 219:7378 220:8098 221:13982 222:9342 223:8350 224:11788 225:10354 226:12668 227:0 228:0 229:5440 230:9590 231:10252 232:11304 233:14873 234:11248 235:16190 236:10299 237:10644 238:15452 239:10604 240:0 241:12734 242:13132 243:7492 244:8398 245:10618 246:10784 247:0 248:10588 249:11364 250:9938 251:12370 252:12720 253:4344 254:0 255:10656 256:13932 257:5348 258:10608 259:39737 260:6704 261:10834 262:12884 263:11712 264:0 265:0 266:13348 267:12132 268:14018 269:12056 270:13084 271:12618 272:12432 273:0 274:8934 275:14498 276:0 277:12886 278:8316 279:3580 280:0 281:8640 282:7754 283:20294 284:7380 285:13559 286:11540 287:11436 288:14984 289:12334 290:10774 291:9400 292:0 293:11274 294:10690 295:0 296:12696 297:3590 298:11746 299:13616 300:12966 301:11268 302:0 303:10474 304:766 305:12592 306:14982 307:12802 308:11680 309:13548 310:10570 311:0 312:14513 313:14054 314:2984 315:11606 316:9284 317:18618 318:8810 319:12358 320:4088 321:12591 322:0 323:12200 324:6006 325:8172 326:5348 327:12488 328:6980 329:13000 330:15866 331:22586 332:0 333:8150 334:13516 335:0 336:7048 337:0 338:8548 339:11900 340:12902 341:0 342:13542 343:10172 344:2316 345:0 346:15384 347:11044 348:10953 349:11134 350:12868 351:1188 352:10772 353:2210 354:3758 355:12544 356:18142 357:11008 358:12464 359:10298 360:0 361:9048 362:3248 363:6884 364:17400 365:11136 366:10526 367:16928 368:3000 369:10334 370:5216 371:10970 372:9950 373:14510 374:9676 375:9274 376:7944 377:0 378:9620 379:14326 380:6142 381:5652 382:0 383:12906 384:0 385:11030 386:11122 387:0 388:11386 389:14422 390:5350 391:13644 392:11138 393:11280 394:7704 395:11960 396:9755 397:15597 398:12560 399:11266 400:10154 #259
-7.1112127691874522862798546629648e-05 1:8612 2:9726 3:7802 4:630 5:804 6:10492 7:14300 8:11530 9:8980 10:12396 11:9054 12:8946 13:9824 14:11316 15:11708 16:4566 17:2022 18:10624 19:8940 20:8064 21:12842 22:11180 23:11764 24:10884 25:11636 26:8134 27:11062 28:11999 29:11136 30:10382 31:6758 32:8036 33:11506 34:9124 35:13588 36:7008 37:9424 38:4454 39:11842 40:9228 41:11052 42:8300 43:8246 44:10638 45:8744 46:10992 47:6473 48:11990 49:9098 50:14714 51:12426 52:11996 53:11634 54:0 55:11268 56:13832 57:0 58:8240 59:12290 60:10294 61:13928 62:12518 63:4256 64:7796 65:9892 66:13384 67:11354 68:12638 69:12694 70:9896 71:11740 72:11376 73:11836 74:9654 75:10802 76:0 77:12192 78:12860 79:12604 80:5264 81:12684 82:9875 83:11162 84:13750 85:0 86:11574 87:7334 88:11619 89:15569 90:11802 91:12132 92:10000 93:9794 94:12018 95:13796 96:13644 97:0 98:12854 99:9424 100:0 101:10482 102:12250 103:10520 104:0 105:13474 106:13422 107:12292 108:11474 109:10294 110:12272 111:11394 112:9814 113:11826 114:10288 115:8788 116:13600 117:3492 118:10520 119:8480 120:1116 121:0 122:12742 123:4700 124:8428 125:13372 126:10044 127:2810 128:11686 129:6210 130:10336 131:10516 132:14516 133:12064 134:5230 135:12550 136:11984 137:10298 138:8410 139:7600 140:0 141:5988 142:11892 143:12868 144:11180 145:8436 146:13590 147:9854 148:13407 149:9414 150:16048 151:10308 152:8305 153:11466 154:0 155:13032 156:15154 157:10716 158:10230 159:3558 160:6740 161:9972 162:8632 163:13233 164:7639 165:14396 166:11052 167:0 168:9754 169:12160 170:7319 171:4718 172:5626 173:0 174:11566 175:13654 176:11944 177:11982 178:3944 179:13528 180:11324 181:12248 182:1142 183:7812 184:6616 185:12970 186:11201 187:11305 188:9572 189:0 190:12892 191:0 192:10814 193:13076 194:9672 195:5882 196:14058 197:11728 198:7860 199:8324 200:14920 201:10614 202:13480 203:3162 204:0 205:11442 206:12630 207:13412 208:10196 209:9840 210:10278 211:10184 212:538 213:12057 214:4838 215:11928 216:0 217:13650 218:13582 219:7730 220:9384 221:12220 222:12889 223:7468 224:10164 225:12588 226:12642 227:0 228:0 229:5248 230:11782 231:10752 232:10748 233:15952 234:10414 235:12752 236:11350 237:10404 238:11940 239:12698 240:0 241:11150 242:12972 243:5594 244:8360 245:10116 246:10614 247:0 248:10916 249:10022 250:11406 251:13405 252:11690 253:2420 254:0 255:9612 256:13724 257:5438 258:11668 259:12592 260:9810 261:11794 262:10320 263:12112 264:0 265:0 266:12087 267:12480 268:11686 269:10878 270:13086 271:13360 272:12816 273:0 274:12720 275:13266 276:0 277:11568 278:6784 279:2611 280:0 281:6850 282:10228 283:12993 284:9192 285:13588 286:14188 287:10848 288:13741 289:12393 290:11652 291:11518 292:0 293:11554 294:10868 295:0 296:13254 297:2536 298:11826 299:11195 300:10536 301:10014 302:0 303:15035 304:1184 305:37193 306:13846 307:10760 308:10848 309:11736 310:8602 311:0 312:8839 313:11038 314:4324 315:9296 316:8138 317:13257 318:8910 319:11840 320:2804 321:10966 322:0 323:11340 324:3790 325:7804 326:4522 327:10794 328:6926 329:12792 330:12608 331:13302 332:0 333:7484 334:14074 335:0 336:6526 337:0 338:7452 339:11238 340:13028 341:0 342:14228 343:11864 344:2594 345:0 346:12134 347:11599 348:11784 349:11862 350:13990 351:660 352:9907 353:3008 354:4508 355:11824 356:14754 357:10670 358:11390 359:12174 360:0 361:9652 362:2914 363:6806 364:13491 365:12112 366:10074 367:12672 368:3866 369:10584 370:5518 371:14408 372:10603 373:12870 374:12746 375:10794 376:10082 377:0 378:12381 379:14748 380:8540 381:5150 382:0 383:13284 384:0 385:12626 386:11526 387:0 388:12184 389:10948 390:9004 391:13144 392:11166 393:13520 394:10070 395:13226 396:8586 397:12687 398:11832 399:11122 400:10962 #305
10 1:0 2:0 3:0 4:0 5:0 6:0 7:0 8:0 9:0 10:0 11:0 12:0 13:0 14:0 15:0 16:0 17:0 18:0 19:0 20:0 21:0 22:0 23:0 24:0 25:0 26:0 27:0 28:0 29:0 30:0 31:0 32:0 33:0 34:0 35:0 36:0 37:0 38:0 39:0 40:0 41:0 42:0 43:0 44:0 45:0 46:0 47:0 48:0 49:0 50:0 51:0 52:0 53:0 54:0 55:0 56:0 57:0 58:0 59:0 60:0 61:0 62:0 63:0 64:0 65:0 66:0 67:0 68:0 69:0 70:0 71:0 72:0 73:0 74:0 75:0 76:0 77:0 78:0 79:0 80:0 81:0 82:0 83:0 84:0 85:0 86:0 87:0 88:0 89:0 90:0 91:0 92:0 93:0 94:0 95:0 96:0 97:0 98:0 99:0 100:0 101:0 102:0 103:0 104:0 105:0 106:0 107:0 108:0 109:0 110:0 111:0 112:0 113:0 114:0 115:0 116:0 117:0 118:0 119:0 120:0 121:0 122:0 123:0 124:0 125:0 126:0 127:0 128:0 129:0 130:0 131:0 132:0 133:0 134:0 135:0 136:0 137:0 138:0 139:0 140:0 141:0 142:0 143:0 144:0 145:0 146:0 147:0 148:0 149:0 150:0 151:0 152:0 153:0 154:0 155:0 156:0 157:0 158:0 159:0 160:0 161:0 162:0 163:0 164:0 165:0 166:0 167:0 168:0 169:0 170:0 171:0 172:0 173:0 174:0 175:0 176:0 177:0 178:0 179:0 180:0 181:0 182:0 183:0 184:0 185:0 186:0 187:0 188:0 189:0 190:0 191:0 192:0 193:0 194:0 195:0 196:0 197:0 198:0 199:0 200:0 201:0 202:0 203:0 204:0 205:0 206:0 207:0 208:0 209:0 210:0 211:0 212:0 213:0 214:0 215:0 216:0 217:0 218:0 219:0 220:0 221:0 222:0 223:0 224:0 225:0 226:0 227:0 228:0 229:0 230:0 231:0 232:0 233:0 234:0 235:0 236:0 237:0 238:0 239:0 240:0 241:0 242:0 243:0 244:0 245:0 246:0 247:0 248:0 249:0 250:0 251:0 252:0 253:0 254:0 255:0 256:0 257:0 258:0 259:0 260:0 261:0 262:0 263:0 264:0 265:0 266:0 267:0 268:0 269:0 270:0 271:0 272:0 273:0 274:0 275:0 276:0 277:0 278:0 279:0 280:0 281:0 282:0 283:0 284:0 285:0 286:0 287:0 288:0 289:0 290:0 291:0 292:0 293:0 294:0 295:0 296:0 297:0 298:0 299:0 300:0 301:0 302:0 303:0 304:0 305:0 306:0 307:0 308:0 309:0 310:0 311:0 312:0 313:0 314:0 315:0 316:0 317:0 318:0 319:0 320:0 321:0 322:0 323:0 324:0 325:0 326:0 327:0 328:0 329:0 330:0 331:0 332:0 333:0 334:0 335:0 336:0 337:0 338:0 339:0 340:0 341:0 342:0 343:0 344:0 345:0 346:0 347:0 348:0 349:0 350:0 351:0 352:0 353:0 354:0 355:0 356:0 357:0 358:0 359:0 360:0 361:0 362:0 363:0 364:0 365:0 366:0 367:0 368:0 369:0 370:0 371:0 372:0 373:0 374:0 375:0 376:0 377:0 378:0 379:0 380:0 381:0 382:0 383:0 384:0 385:0 386:0 387:0 388:0 389:0 390:0 391:0 392:0 393:0 394:0 395:0 396:0 397:0 398:0 399:0 400:0 #191
0.00032349367964555793275582828982806 1:1542 2:1044 3:1398 4:90 5:174 6:1350 7:4770 8:2250 9:1456 10:2890 11:3436 12:1636 13:2516 14:2036 15:3900 16:9165 17:364 18:5490 19:2304 20:1380 21:5304 22:3112 23:7282 24:3212 25:3096 26:1056 27:4380 28:5986 29:826 30:3954 31:1496 32:810 33:2824 34:1230 35:6476 36:2936 37:1230 38:1186 39:2006 40:2078 41:3988 42:1912 43:2224 44:4328 45:3032 46:3070 47:3642 48:2792 49:1500 50:7683 51:5270 52:4038 53:3404 54:0 55:1154 56:8154 57:0 58:3376 59:6886 60:2828 61:5156 62:5542 63:998 64:3778 65:2552 66:5458 67:4250 68:5486 69:5872 70:5178 71:6472 72:2008 73:2642 74:2804 75:4438 76:0 77:4424 78:3766 79:2988 80:1380 81:5110 82:4292 83:1422 84:2012 85:0 86:3928 87:3370 88:2022 89:5196 90:4840 91:3024 92:2590 93:2056 94:5782 95:4314 96:2460 97:0 98:5532 99:2096 100:0 101:4844 102:2664 103:3122 104:0 105:5400 106:3494 107:2416 108:3960 109:2036 110:6358 111:1258 112:1176 113:5177 114:3836 115:1604 116:6694 117:2356 118:3198 119:1422 120:96 121:0 122:5478 123:1984 124:2310 125:5446 126:3362 127:288 128:6040 129:2412 130:3082 131:5510 132:4714 133:6252 134:2502 135:5226 136:1960 137:738 138:1814 139:3470 140:0 141:2282 142:5740 143:5352 144:4634 145:2346 146:4406 147:1536 148:4646 149:1968 150:5650 151:3938 152:606 153:2152 154:0 155:4922 156:5786 157:5286 158:3070 159:450 160:768 161:5810 162:2732 163:5430 164:1070 165:5562 166:5362 167:0 168:2070 169:6534 170:1566 171:568 172:3328 173:0 174:2322 175:7312 176:4368 177:6602 178:844 179:5411 180:5572 181:2506 182:382 183:3388 184:2036 185:4520 186:7308 187:2776 188:1642 189:0 190:3500 191:0 192:1734 193:5806 194:1472 195:1222 196:4158 197:4924 198:2506 199:912 200:7570 201:3834 202:4610 203:2262 204:0 205:3858 206:3862 207:5572 208:3182 209:2360 210:3506 211:1072 212:30 213:6955 214:2638 215:3700 216:0 217:7126 218:5714 219:2812 220:4102 221:6736 222:2596 223:3682 224:4926 225:4868 226:5512 227:0 228:0 229:2468 230:3500 231:3800 232:2688 233:6192 234:3950 235:5304 236:3074 237:4816 238:7624 239:4762 240:0 241:5418 242:4154 243:1900 244:1732 245:1848 246:3490 247:0 248:2874 249:1702 250:3908 251:6951 252:3610 253:1442 254:0 255:894 256:6949 257:1376 258:4958 259:5000 260:1266 261:3092 262:3800 263:6000 264:0 265:0 266:4108 267:3980 268:5598 269:4200 270:7518 271:6312 272:4426 273:0 274:3140 275:3524 276:0 277:5112 278:3792 279:2120 280:0 281:2986 282:5500 283:8206 284:1164 285:6126 286:6034 287:3222 288:7332 289:7312 290:5248 291:2804 292:0 293:6269 294:3796 295:0 296:6888 297:1102 298:3920 299:3296 300:4820 301:3436 302:0 303:5076 304:432 305:4566 306:4590 307:2652 308:2986 309:5396 310:3892 311:0 312:4664 313:4804 314:722 315:2948 316:2645 317:6208 318:3404 319:5076 320:918 321:3430 322:0 323:5350 324:3120 325:2294 326:2146 327:5722 328:3252 329:6252 330:5252 331:7496 332:0 333:2680 334:3844 335:0 336:1968 337:0 338:3084 339:3880 340:6404 341:0 342:4338 343:2820 344:774 345:0 346:7328 347:3458 348:6226 349:4210 350:3962 351:464 352:2812 353:702 354:594 355:6032 356:6942 357:4624 358:2838 359:3356 360:0 361:3350 362:1344 363:462 364:5720 365:5644 366:2750 367:5424 368:1986 369:4488 370:1758 371:6164 372:4092 373:5187 374:3970 375:3214 376:1214 377:0 378:4148 379:7550 380:884 381:1528 382:0 383:5294 384:0 385:3526 386:4980 387:0 388:4052 389:5570 390:740 391:5548 392:3858 393:3798 394:3346 395:6665 396:2010 397:5870 398:4726 399:4066 400:2896 #16
0.00066246931880920229343545635458668 1:1542 2:1558 3:1120 4:30 5:60 6:3594 7:3267 8:4160 9:1424 10:3972 11:1196 12:2904 13:2344 14:2678 15:844 16:364 17:4935 18:1414 19:976 20:1294 21:2574 22:1482 23:1400 24:1924 25:2788 26:2026 27:762 28:2606 29:4932 30:1104 31:2000 32:2028 33:1348 34:3682 35:1052 36:1534 37:2290 38:1058 39:2914 40:2474 41:1250 42:932 43:1268 44:1430 45:1490 46:2524 47:746 48:2770 49:4234 50:1046 51:1398 52:1200 53:1800 54:0 55:3036 56:2774 57:0 58:778 59:822 60:1174 61:1074 62:1910 63:492 64:926 65:318 66:740 67:2304 68:718 69:1004 70:628 71:1100 72:952 73:2184 74:1512 75:1238 76:0 77:2668 78:912 79:978 80:1090 81:538 82:736 83:2650 84:6702 85:0 86:4584 87:1296 88:1926 89:1138 90:740 91:2992 92:1222 93:1122 94:1244 95:1092 96:4960 97:0 98:1692 99:3250 100:0 101:1082 102:3199 103:1662 104:0 105:2926 106:2132 107:756 108:1826 109:1470 110:478 111:2150 112:2877 113:696 114:2006 115:1781 116:1406 117:300 118:1290 119:532 120:6 121:0 122:796 123:2342 124:1658 125:882 126:4053 127:750 128:426 129:586 130:1092 131:1026 132:2148 133:1338 134:652 135:852 136:3024 137:6221 138:1506 139:594 140:0 141:596 142:916 143:1104 144:816 145:1286 146:2974 147:2836 148:2672 149:2684 150:1632 151:660 152:4102 153:2024 154:0 155:1068 156:2604 157:1158 158:462 159:1248 160:2900 161:1076 162:1420 163:2307 164:854 165:2254 166:408 167:0 168:3774 169:2044 170:660 171:336 172:390 173:0 174:3330 175:838 176:756 177:560 178:888 179:3510 180:714 181:2474 182:156 183:750 184:522 185:996 186:666 187:3200 188:3354 189:0 190:1082 191:0 192:3480 193:564 194:2640 195:746 196:2192 197:1564 198:1128 199:1724 200:1440 201:240 202:1260 203:186 204:0 205:1832 206:3996 207:2816 208:1298 209:718 210:1104 211:3074 212:60 213:922 214:318 215:1226 216:0 217:1990 218:1696 219:2176 220:926 221:1326 222:4550 223:150 224:684 225:2598 226:2010 227:0 228:0 229:782 230:1348 231:1824 232:2420 233:1060 234:1720 235:1468 236:3470 237:384 238:710 239:2288 240:0 241:600 242:2966 243:824 244:1212 245:2430 246:2174 247:0 248:4024 249:2910 250:1420 251:636 252:1302 253:274 254:0 255:1542 256:1706 257:730 258:2286 259:1680 260:3320 261:2182 262:586 263:600 264:0 265:0 266:4086 267:1818 268:948 269:872 270:324 271:396 272:1934 273:0 274:4214 275:2836 276:0 277:684 278:384 279:408 280:0 281:1062 282:552 283:820 284:1584 285:1372 286:738 287:2246 288:1516 289:384 290:1448 291:4612 292:0 293:1258 294:1802 295:0 296:1114 297:574 298:1848 299:842 300:882 301:2894 302:0 303:204 304:48 305:2022 306:2070 307:1468 308:528 309:1008 310:990 311:0 312:1272 313:1090 314:2076 315:552 316:1564 317:1598 318:724 319:3650 320:520 321:1260 322:0 323:1134 324:186 325:348 326:1082 327:976 328:264 329:1080 330:1212 331:1122 332:0 333:1834 334:4336 335:0 336:694 337:0 338:498 339:1750 340:1014 341:0 342:1576 343:1820 344:508 345:0 346:768 347:1548 348:1418 349:2926 350:2240 351:308 352:1106 353:854 354:1288 355:1946 356:2428 357:1040 358:474 359:2054 360:0 361:1622 362:878 363:2024 364:1026 365:858 366:2892 367:2386 368:466 369:1418 370:612 371:1294 372:1730 373:2666 374:1442 375:3320 376:3070 377:0 378:876 379:904 380:2974 381:494 382:0 383:1226 384:0 385:1280 386:1660 387:0 388:1762 389:966 390:3592 391:1498 392:1086 393:2698 394:2690 395:640 396:2294 397:968 398:642 399:2540 400:3528 #17
8.7179616090218460121470667179011e-05 1:8808 2:8944 3:8682 4:606 5:768 6:10816 7:12838 8:13515 9:11238 10:13098 11:11504 12:9910 13:10354 14:11394 15:13554 16:4158 17:2192 18:10866 19:10079 20:8006 21:13183 22:10992 23:9390 24:10402 25:12248 26:8864 27:10630 28:12496 29:10154 30:12164 31:5896 32:7844 33:9516 34:10320 35:11564 36:8208 37:10136 38:4478 39:11538 40:9752 41:12610 42:9164 43:9052 44:12412 45:9422 46:11876 47:6354 48:11120 49:8960 50:12486 51:11470 52:11028 53:10788 54:0 55:12302 56:14106 57:0 58:8689 59:10826 60:11900 61:12450 62:10702 63:3056 64:8198 65:7922 66:12128 67:12296 68:10620 69:12478 70:8568 71:11830 72:10396 73:10832 74:11737 75:12352 76:0 77:15178 78:12860 79:11054 80:5852 81:14004 82:9036 83:10762 84:12044 85:0 86:12494 87:8992 88:12193 89:14160 90:10550 91:13319 92:12054 93:9124 94:11246 95:15859 96:13664 97:0 98:13079 99:9774 100:0 101:9514 102:12384 103:11642 104:0 105:14430 106:14456 107:11501 108:11582 109:11542 110:11988 111:9130 112:11137 113:11536 114:12638 115:10512 116:15038 117:2946 118:9608 119:9635 120:1394 121:0 122:12313 123:5708 124:9528 125:12922 126:11368 127:3196 128:11038 129:6810 130:11386 131:10696 132:13698 133:12739 134:5738 135:11422 136:13786 137:10412 138:10020 139:7460 140:0 141:6664 142:12622 143:10050 144:11392 145:7948 146:14035 147:11334 148:13276 149:10122 150:13874 151:10614 152:7978 153:12572 154:0 155:11972 156:17625 157:10156 158:9946 159:2802 160:8096 161:11242 162:11519 163:13599 164:6714 165:14695 166:10358 167:0 168:12012 169:11464 170:6262 171:5990 172:6030 173:0 174:12976 175:12924 176:9748 177:10680 178:5376 179:11948 180:11194 181:12288 182:1558 183:7930 184:6298 185:11676 186:11532 187:12092 188:9226 189:0 190:12214 191:0 192:10100 193:11728 194:9818 195:7076 196:36593 197:10858 198:9488 199:9083 200:14121 201:10854 202:13698 203:2730 204:0 205:15710 206:12822 207:13728 208:11728 209:9828 210:12822 211:10304 212:542 213:10722 214:5414 215:9040 216:0 217:11956 218:14724 219:8748 220:8476 221:13862 222:13540 223:7456 224:10706 225:10302 226:12724 227:0 228:0 229:5422 230:10962 231:12802 232:11438 233:14548 234:12538 235:13044 236:12168 237:11432 238:11494 239:13080 240:0 241:10150 242:13880 243:6762 244:8440 245:10922 246:11154 247:0 248:13492 249:11542 250:11230 251:10892 252:12432 253:3220 254:0 255:10018 256:14480 257:5562 258:13002 259:13228 260:10250 261:12100 262:10612 263:10124 264:0 265:0 266:14082 267:10380 268:9856 269:9890 270:9730 271:10756 272:13534 273:0 274:13692 275:12172 276:0 277:11076 278:7593 279:2316 280:0 281:6938 282:9090 283:14386 284:10838 285:13096 286:12968 287:12984 288:12325 289:10532 290:12125 291:11428 292:0 293:10989 294:10818 295:0 296:11118 297:2594 298:13844 299:10770 300:10564 301:11632 302:0 303:10812 304:1190 305:14058 306:13736 307:11294 308:9798 309:10608 310:9286 311:0 312:11468 313:10638 314:4794 315:10138 316:7700 317:15198 318:8764 319:14584 320:3188 321:11166 322:0 323:11470 324:4092 325:6074 326:4476 327:10207 328:5884 329:12150 330:12651 331:15270 332:0 333:8462 334:16635 335:0 336:5802 337:0 338:9796 339:10892 340:13773 341:0 342:13148 343:11840 344:2624 345:0 346:11868 347:13433 348:10004 349:11272 350:12270 351:970 352:11852 353:3132 354:5726 355:12966 356:15654 357:11092 358:9510 359:11354 360:0 361:10486 362:4090 363:7264 364:11408 365:10764 366:12002 367:16410 368:4318 369:9738 370:4822 371:13266 372:11528 373:12728 374:13630 375:13186 376:10212 377:0 378:11338 379:12274 380:9312 381:4318 382:0 383:12992 384:0 385:13278 386:11666 387:0 388:11962 389:12332 390:8002 391:12266 392:11840 393:13520 394:10250 395:12968 396:10280 397:13127 398:10650 399:12888 400:12160 #196
7.3634430966087083443583072295269e-05 1:13946 2:14020 3:19264 4:1982 5:928 6:9820 7:11266 8:11821 9:15391 10:8426 11:13934 12:10096 13:11422 14:15306 15:11974 16:2304 17:976 18:6440 19:38093 20:14467 21:9016 22:12938 23:6652 24:11463 25:9588 26:17195 27:12598 28:7252 29:7270 30:12220 31:6717 32:16412 33:9560 34:10384 35:7094 36:6746 37:11892 38:2934 39:10434 40:10618 41:10610 42:15712 43:12762 44:10545 45:9260 46:12430 47:3654 48:7231 49:6962 50:5974 51:11256 52:11318 53:9544 54:0 55:11592 56:5418 57:0 58:7660 59:8090 60:12980 61:9506 62:5456 63:1680 64:10908 65:11778 66:9098 67:9944 68:9608 69:7998 70:9920 71:7146 72:15370 73:9466 74:13230 75:10258 76:0 77:9908 78:9816 79:11668 80:6646 81:11756 82:7144 83:13938 84:10038 85:0 86:8757 87:7964 88:11786 89:7708 90:12374 91:9958 92:14066 93:13276 94:8734 95:9176 96:10075 97:0 98:8742 99:11344 100:0 101:8130 102:11362 103:10536 104:0 105:6516 106:10256 107:14749 108:11024 109:14064 110:10262 111:14467 112:13406 113:11152 114:12366 115:13756 116:5964 117:2352 118:7586 119:15686 120:3954 121:0 122:9930 123:3524 124:13148 125:10774 126:4904 127:2672 128:10430 129:7422 130:11360 131:9581 132:9418 133:8672 134:5168 135:8888 136:12236 137:11016 138:16500 139:5426 140:0 141:5480 142:10180 143:9952 144:9776 145:6730 146:9302 147:11376 148:8225 149:13158 150:10396 151:12820 152:11450 153:13764 154:0 155:8358 156:8238 157:3536 158:16208 159:1446 160:11556 161:8928 162:14689 163:10898 164:10306 165:8618 166:7784 167:0 168:9692 169:10014 170:8501 171:8748 172:1982 173:0 174:14014 175:9350 176:10364 177:10077 178:7790 179:7464 180:9050 181:11104 182:2134 183:7034 184:8812 185:8648 186:6870 187:9160 188:10182 189:0 190:12234 191:0 192:11606 193:9342 194:13414 195:10546 196:10079 197:8508 198:8611 199:14890 200:6888 201:13712 202:10612 203:2336 204:0 205:11324 206:10104 207:5944 208:11300 209:14430 210:13240 211:13528 212:798 213:8496 214:5148 215:7786 216:0 217:6720 218:7832 219:4570 220:5590 221:8554 222:5844 223:8406 224:11260 225:5366 226:6302 227:0 228:0 229:1894 230:9218 231:8906 232:12643 233:8232 234:9330 235:10164 236:10524 237:10244 238:8698 239:6212 240:0 241:9899 242:9762 243:5596 244:15459 245:10674 246:11076 247:0 248:9996 249:15307 250:11313 251:10534 252:10682 253:1298 254:0 255:18284 256:7938 257:6074 258:10102 259:10971 260:11750 261:12737 262:13294 263:8908 264:0 265:0 266:10750 267:7828 268:10262 269:12290 270:7890 271:9552 272:8932 273:0 274:8282 275:10386 276:0 277:9664 278:5932 279:906 280:0 281:6611 282:5894 283:10196 284:11984 285:7656 286:6126 287:11476 288:7144 289:8564 290:8138 291:7648 292:0 293:8808 294:10532 295:0 296:7994 297:3490 298:11974 299:18574 300:11656 301:8741 302:0 303:12114 304:830 305:8940 306:11677 307:16072 308:14424 309:12070 310:5594 311:0 312:4268 313:12564 314:3048 315:13620 316:6360 317:10128 318:7675 319:8576 320:4771 321:13610 322:0 323:9401 324:3100 325:9398 326:5682 327:8200 328:3652 329:5974 330:10806 331:10673 332:0 333:6898 334:7516 335:0 336:6340 337:0 338:6238 339:8726 340:9644 341:0 342:12162 343:10337 344:1680 345:0 346:9608 347:11412 348:5648 349:8362 350:7700 351:758 352:14302 353:2620 354:6798 355:9218 356:6752 357:10138 358:18246 359:12254 360:0 361:11040 362:2552 363:13208 364:14318 365:9514 366:10226 367:10147 368:2686 369:9358 370:4564 371:7436 372:7894 373:8890 374:7768 375:4346 376:13928 377:0 378:10092 379:7622 380:10624 381:3278 382:0 383:7996 384:0 385:13078 386:11042 387:0 388:11832 389:11225 390:9081 391:7898 392:9676 393:10768 394:7138 395:9066 396:12738 397:9588 398:11478 399:7728 400:9933 #19
-6.8892243638892335772482000688655e-05 1:10430 2:6194 3:9982 4:486 5:1382 6:8630 7:15094 8:8730 9:10088 10:10636 11:9994 12:5556 13:9266 14:11826 15:14734 16:5870 17:968 18:17434 19:9588 20:5654 21:12804 22:10044 23:18616 24:14676 25:11224 26:7712 27:11518 28:13308 29:5736 30:13126 31:7424 32:5318 33:11722 34:4912 35:17717 36:6852 37:5992 38:3248 39:10008 40:11870 41:12838 42:9929 43:7938 44:15080 45:10827 46:11110 47:9235 48:12438 49:6564 50:16761 51:16279 52:12998 53:12086 54:0 55:6770 56:15939 57:0 58:10292 59:19345 60:10644 61:16940 62:14588 63:4162 64:10498 65:12782 66:16682 67:14176 68:16399 69:18894 70:15954 71:15536 72:9702 73:10590 74:10058 75:13753 76:0 77:11000 78:14218 79:12444 80:5000 81:18166 82:11916 83:10325 84:6942 85:0 86:11238 87:9598 88:9340 89:18072 90:15066 91:9906 92:13566 93:10206 94:17068 95:16134 96:8040 97:0 98:14214 99:7498 100:0 101:14626 102:10734 103:14880 104:0 105:13676 106:11692 107:15773 108:9764 109:10248 110:19554 111:8944 112:7750 113:14348 114:12623 115:8302 116:16663 117:3930 118:13527 119:9898 120:1550 121:0 122:21895 123:4610 124:8500 125:17060 126:7184 127:1562 128:15672 129:8926 130:11938 131:14182 132:15592 133:17432 134:6214 135:16614 136:8318 137:6454 138:8014 139:9486 140:0 141:7914 142:14304 143:16624 144:12654 145:9184 146:13292 147:5730 148:11722 149:9022 150:18331 151:15420 152:4496 153:10525 154:0 155:15690 156:18142 157:12991 158:12497 159:2422 160:4076 161:14256 162:10604 163:19364 164:7936 165:12582 166:15152 167:0 168:7756 169:14494 170:5896 171:4408 172:9225 173:0 174:9124 175:19660 176:12832 177:17936 178:3550 179:12144 180:14908 181:12766 182:1260 183:12919 184:9450 185:16930 186:18464 187:11307 188:8244 189:0 190:12144 191:0 192:7108 193:17974 194:8894 195:6698 196:13127 197:15214 198:8092 199:8647 200:16300 201:18364 202:15893 203:3886 204:0 205:13266 206:11871 207:14133 208:13477 209:10162 210:13475 211:5254 212:492 213:19814 214:8348 215:16494 216:0 217:17032 218:14582 219:7688 220:13294 221:16295 222:8914 223:13850 224:12986 225:13805 226:14862 227:0 228:0 229:6644 230:13717 231:10552 232:8648 233:18438 234:10352 235:14976 236:11680 237:14686 238:19498 239:13688 240:0 241:14600 242:11018 243:6754 244:10156 245:10198 246:13270 247:0 248:8958 249:8656 250:12708 251:18754 252:13338 253:3838 254:0 255:7186 256:15122 257:6272 258:12910 259:15597 260:8494 261:13388 262:13836 263:18303 264:0 265:0 266:11464 267:13508 268:15965 269:13582 270:23072 271:19270 272:16398 273:0 274:9044 275:10646 276:0 277:15574 278:7052 279:4896 280:0 281:9253 282:14698 283:22542 284:7264 285:14264 286:16706 287:10716 288:17002 289:20524 290:15352 291:9566 292:0 293:13158 294:10514 295:0 296:18522 297:4054 298:9358 299:13814 300:13762 301:9211 302:0 303:21823 304:1438 305:12687 306:13371 307:10328 308:13206 309:12825 310:11240 311:0 312:14842 313:16420 314:4795 315:14892 316:8650 317:16633 318:10686 319:11951 320:3038 321:15669 322:0 323:15578 324:7512 325:10458 326:4674 327:15482 328:9240 329:18358 330:13644 331:19748 332:0 333:8162 334:10218 335:0 336:7300 337:0 338:10585 339:10554 340:17454 341:0 342:14774 343:10300 344:2872 345:0 346:19906 347:13765 348:13896 349:13848 350:12506 351:1034 352:11288 353:2228 354:3674 355:15874 356:19242 357:16060 358:15060 359:12398 360:0 361:9604 362:2448 363:4750 364:20963 365:19858 366:8848 367:14368 368:5502 369:12404 370:5324 371:19714 372:13904 373:13750 374:11316 375:6332 376:8240 377:0 378:14913 379:19390 380:5619 381:4882 382:0 383:11978 384:0 385:13986 386:15894 387:0 388:12412 389:13494 390:5006 391:15698 392:15068 393:11263 394:8424 395:19102 396:7538 397:43037 398:14564 399:12760 400:10024 #397
-8.3041294687713853618638015774422e-05 1:6758 2:4106 3:5882 4:306 5:574 6:6202 7:12680 8:5664 9:7414 10:10383 11:7618 12:5486 13:7854 14:8580 15:14328 16:6034 17:738 18:18958 19:6126 20:5182 21:14638 22:7922 23:18638 24:10614 25:10026 26:3142 27:12521 28:14160 29:5138 30:10298 31:6342 32:2818 33:14086 34:4136 35:18714 36:5880 37:5522 38:4490 39:7700 40:7736 41:12639 42:6818 43:7660 44:13360 45:9262 46:9554 47:8307 48:12752 49:5152 50:23437 51:13570 52:12516 53:12096 54:0 55:6164 56:15859 57:0 58:8714 59:18624 60:10016 61:17391 62:16445 63:4810 64:9316 65:10018 66:20079 67:12388 68:18022 69:19077 70:15888 71:19438 72:7622 73:9604 74:7696 75:12284 76:0 77:9710 78:15496 79:10308 80:4040 81:17375 82:15288 83:7576 84:6612 85:0 86:12484 87:9392 88:9730 89:17910 90:13182 91:10288 92:10252 93:6598 94:15764 95:17332 96:6810 97:0 98:14912 99:6510 100:0 101:15486 102:9002 103:12228 104:0 105:15690 106:11228 107:10034 108:9897 109:9134 110:19479 111:6704 112:3924 113:14878 114:10593 115:6372 116:18642 117:5610 118:13766 119:5786 120:682 121:0 122:18629 123:3414 124:7580 125:15834 126:6368 127:1422 128:15600 129:5338 130:12618 131:14896 132:13336 133:15378 134:6116 135:18650 136:5522 137:3420 138:7228 139:9684 140:0 141:7890 142:15510 143:19580 144:14712 145:6324 146:14072 147:5658 148:14011 149:6912 150:14484 151:12924 152:3008 153:7423 154:0 155:16068 156:14786 157:15156 158:9982 159:2718 160:2814 161:15146 162:8940 163:14050 164:5126 165:14849 166:14876 167:0 168:7388 169:14834 170:5836 171:3380 172:9198 173:0 174:7161 175:17619 176:15706 177:17990 178:3136 179:13912 180:14290 181:10122 182:1204 183:9794 184:6774 185:18229 186:19165 187:9930 188:6628 189:0 190:12708 191:0 192:6850 193:18328 194:5444 195:5048 196:12968 197:14430 198:6462 199:5306 200:16608 201:16909 202:15072 203:3916 204:0 205:9544 206:11446 207:14160 208:12832 209:9091 210:10730 211:5751 212:216 213:20424 214:7724 215:14394 216:0 217:18640 218:13140 219:7570 220:11908 221:17630 222:9250 223:12916 224:13713 225:13660 226:17284 227:0 228:0 229:7979 230:13392 231:12508 232:7542 233:18374 234:11068 235:12454 236:10080 237:16798 238:17386 239:17486 240:0 241:16084 242:9712 243:6122 244:6308 245:9831 246:13412 247:0 248:9240 249:5046 250:12976 251:18802 252:11676 253:2607 254:0 255:3780 256:15662 257:4906 258:13702 259:11540 260:7162 261:11504 262:9908 263:18544 264:0 265:0 266:10158 267:11072 268:15220 269:12834 270:22973 271:20506 272:12712 273:0 274:10080 275:10060 276:0 277:15300 278:8462 279:4082 280:0 281:9304 282:17282 283:14798 284:6414 285:17326 286:44265 287:9398 288:16296 289:21776 290:15466 291:11938 292:0 293:15706 294:12648 295:0 296:18970 297:3420 298:8318 299:9592 300:12956 301:8582 302:0 303:19868 304:1600 305:14188 306:11942 307:8922 308:9952 309:11144 310:11098 311:0 312:8778 313:15668 314:3336 315:9754 316:6580 317:12152 318:9406 319:11254 320:2504 321:12126 322:0 323:15148 324:6010 325:7376 326:5468 327:16583 328:8598 329:20768 330:9558 331:15534 332:0 333:7088 334:10600 335:0 336:6638 337:0 338:11164 339:11940 340:18054 341:0 342:13600 343:10032 344:2218 345:0 346:18111 347:13596 348:19961 349:14795 350:15210 351:1062 352:9976 353:2156 354:2976 355:15294 356:16666 357:16946 358:8628 359:10780 360:0 361:9994 362:3408 363:2592 364:13100 365:18470 366:9652 367:9494 368:5922 369:13249 370:6371 371:23374 372:13922 373:13630 374:14398 375:7500 376:5412 377:0 378:15184 379:21437 380:4312 381:5710 382:0 383:13114 384:0 385:11675 386:15904 387:0 388:12936 389:12694 390:3774 391:19669 392:14224 393:10076 394:9190 395:19892 396:7755 397:16706 398:12644 399:12686 400:8374 #286
6.4680901066428215422446368343401e-05 1:11958 2:14020 3:13078 4:1320 5:864 6:10870 7:10871 8:12702 9:12238 10:10750 11:10528 12:11692 13:11286 14:12100 15:11714 16:3112 17:1482 18:8962 19:12938 20:12780 21:10734 22:37377 23:9640 24:10272 25:11888 26:13926 27:11424 28:13436 29:9560 30:10310 31:5230 32:11946 33:8718 34:12012 35:9156 36:6562 37:11502 38:3462 39:8908 40:10260 41:9822 42:13054 43:10608 44:9144 45:7836 46:10658 47:4770 48:7892 49:9386 50:9392 51:11229 52:11156 53:10248 54:0 55:11029 56:10220 57:0 58:7622 59:9244 60:11544 61:9926 62:8286 63:2058 64:9614 65:8803 66:9258 67:9846 68:9176 69:9794 70:8688 71:9800 72:11688 73:11638 74:12504 75:10934 76:0 77:11296 78:9840 79:11744 80:6036 81:9804 82:7582 83:12742 84:10986 85:0 86:8594 87:7601 88:11702 89:10292 90:10612 91:10098 92:11275 93:12566 94:7880 95:9454 96:14455 97:0 98:10354 99:11280 100:0 101:8536 102:11690 103:9612 104:0 105:10792 106:10212 107:12510 108:12300 109:11194 110:8348 111:10384 112:12899 113:10672 114:11317 115:11620 116:10598 117:2884 118:8512 119:11696 120:1944 121:0 122:9674 123:4070 124:10392 125:10264 126:7724 127:2826 128:10602 129:6884 130:10058 131:11727 132:11068 133:9730 134:5084 135:10212 136:12766 137:12327 138:12760 139:5754 140:0 141:4614 142:10215 143:9636 144:10474 145:6480 146:10196 147:11418 148:10218 149:12078 150:10030 151:11619 152:11866 153:13934 154:0 155:9562 156:10987 157:6644 158:12446 159:2788 160:11726 161:8957 162:12660 163:9848 164:6878 165:11312 166:8074 167:0 168:9570 169:9502 170:6610 171:6746 172:3184 173:0 174:12102 175:10094 176:9564 177:8631 178:7022 179:8780 180:9838 181:9906 182:1788 183:7276 184:7132 185:9416 186:8732 187:9946 188:11534 189:0 190:11710 191:0 192:11330 193:9328 194:12384 195:8306 196:10992 197:11522 198:7554 199:12440 200:9798 201:11342 202:10368 203:2504 204:0 205:11150 206:11692 207:8960 208:9646 209:12002 210:11697 211:12726 212:692 213:9574 214:4722 215:9418 216:0 217:9342 218:11748 219:5306 220:6766 221:9616 222:10387 223:7112 224:9618 225:8150 226:11340 227:0 228:0 229:3784 230:9740 231:9658 232:12304 233:8900 234:10234 235:9788 236:11656 237:8932 238:11043 239:9402 240:0 241:10402 242:13305 243:5777 244:11072 245:10146 246:8946 247:0 248:10246 249:11542 250:10502 251:12806 252:10152 253:1736 254:0 255:13138 256:9948 257:5320 258:10654 259:11116 260:11273 261:10282 262:11404 263:9610 264:0 265:0 266:10580 267:9670 268:10526 269:10572 270:8774 271:11502 272:9398 273:0 274:12140 275:12440 276:0 277:10932 278:6860 279:1080 280:0 281:6338 282:7152 283:11168 284:11032 285:8950 286:7922 287:11742 288:10672 289:9440 290:9668 291:10326 292:0 293:10910 294:10417 295:0 296:9626 297:3672 298:11832 299:12282 300:9926 301:9032 302:0 303:9814 304:1054 305:11180 306:11302 307:11122 308:12226 309:11836 310:6792 311:0 312:6506 313:9603 314:4546 315:11310 316:5638 317:10497 318:7380 319:10708 320:3552 321:12236 322:0 323:9250 324:3188 325:7184 326:5214 327:10608 328:4458 329:9222 330:10276 331:10096 332:0 333:7054 334:11958 335:0 336:5601 337:0 338:6914 339:10548 340:8844 341:0 342:10368 343:9538 344:2312 345:0 346:8052 347:11070 348:7866 349:9742 350:9692 351:922 352:11172 353:4098 354:5662 355:10343 356:9771 357:9358 358:10836 359:11928 360:0 361:10764 362:2426 363:11640 364:11152 365:9430 366:11096 367:11396 368:3002 369:8157 370:4466 371:8280 372:9412 373:9838 374:11064 375:8354 376:11822 377:0 378:9878 379:10178 380:9662 381:5185 382:0 383:11058 384:0 385:11552 386:11004 387:0 388:10526 389:9520 390:10562 391:9032 392:9720 393:11672 394:9448 395:9032 396:11988 397:10044 398:9856 399:11206 400:11092 #22
-4.9097188445826625503767143277045e-05 1:8080 2:4874 3:9514 4:974 5:1200 6:6280 7:14038 8:8038 9:8784 10:10080 11:9726 12:4978 13:8942 14:9698 15:13146 16:5598 17:948 18:17882 19:10262 20:6936 21:14306 22:10526 23:18144 24:12686 25:10910 26:7750 27:11176 28:13676 29:3414 30:12092 31:5920 32:5078 33:10294 34:5810 35:17236 36:6902 37:6098 38:3134 39:6658 40:8708 41:11928 42:10506 43:9112 44:14488 45:9372 46:9360 47:8784 48:10876 49:5490 50:18601 51:15216 52:13642 53:11897 54:0 55:6892 56:15670 57:0 58:8952 59:17408 60:10194 61:16678 62:14778 63:3062 64:11655 65:9564 66:15780 67:14877 68:15464 69:16520 70:18273 71:15772 72:8446 73:10534 74:12028 75:13056 76:0 77:11608 78:11398 79:10705 80:5436 81:14640 82:12720 83:8324 84:5882 85:0 86:10772 87:8466 88:8206 89:15320 90:14276 91:10362 92:12305 93:9901 94:15500 95:14454 96:8188 97:0 98:14056 99:8020 100:0 101:15576 102:9692 103:12688 104:0 105:13278 106:10226 107:11472 108:9826 109:8528 110:15558 111:6042 112:6448 113:12854 114:11072 115:7468 116:16408 117:4274 118:13254 119:8902 120:1606 121:0 122:18406 123:3814 124:8772 125:15882 126:7036 127:1952 128:15184 129:7941 130:10954 131:15503 132:12014 133:14809 134:6156 135:16302 136:7278 137:4048 138:9774 139:8904 140:0 141:8035 142:14426 143:18309 144:12815 145:7982 146:13322 147:6228 148:12560 149:9184 150:14154 151:14044 152:3706 153:8368 154:0 155:14596 156:14454 157:13225 158:12128 159:2196 160:3734 161:15592 162:10590 163:15830 164:5896 165:12594 166:12948 167:0 168:5782 169:14838 170:5176 171:4182 172:6224 173:0 174:9332 175:17126 176:14298 177:17116 178:3858 179:11980 180:15568 181:9870 182:1932 183:9252 184:8184 185:15302 186:18342 187:9212 188:7083 189:0 190:12382 191:0 192:6230 193:18612 194:8210 195:5550 196:9856 197:15742 198:7094 199:7069 200:15688 201:15651 202:13798 203:4664 204:0 205:9876 206:11860 207:12818 208:11798 209:10266 210:11904 211:4570 212:304 213:18910 214:8820 215:14078 216:0 217:16476 218:11742 219:8032 220:12177 221:16508 222:8040 223:11356 224:14492 225:12726 226:14468 227:0 228:0 229:6372 230:12344 231:11986 232:9420 233:15412 234:11388 235:12688 236:10658 237:15923 238:17738 239:13666 240:0 241:15566 242:11580 243:6664 244:9984 245:9220 246:12697 247:0 248:10238 249:9308 250:13190 251:18618 252:11790 253:2452 254:0 255:6386 256:14458 257:6238 258:11940 259:14018 260:7126 261:10524 262:12568 263:19019 264:0 265:0 266:10144 267:12103 268:37937 269:13944 270:21415 271:17486 272:12852 273:0 274:8702 275:12760 276:0 277:14326 278:8082 279:4030 280:0 281:10396 282:13361 283:17860 284:6024 285:15890 286:15220 287:8420 288:17842 289:20431 290:15234 291:10098 292:0 293:14855 294:11826 295:0 296:17974 297:5166 298:9664 299:12157 300:15385 301:9056 302:0 303:18537 304:1542 305:11686 306:12415 307:10818 308:12518 309:15114 310:11164 311:0 312:9646 313:15942 314:2672 315:14094 316:6464 317:13058 318:8836 319:10274 320:4263 321:13130 322:0 323:14014 324:5904 325:9198 326:5836 327:17881 328:8196 329:17579 330:11636 331:15218 332:0 333:6658 334:11952 335:0 336:6944 337:0 338:9792 339:12086 340:17358 341:0 342:14014 343:10036 344:2282 345:0 346:19239 347:10904 348:14854 349:14634 350:13554 351:876 352:12448 353:2106 354:3098 355:16158 356:16856 357:13536 358:12340 359:11403 360:0 361:10566 362:2898 363:4038 364:16480 365:18734 366:9002 367:10374 368:5562 369:12528 370:6242 371:19097 372:15153 373:15606 374:11971 375:7028 376:6100 377:0 378:15134 379:21115 380:4902 381:5480 382:0 383:13040 384:0 385:11002 386:15938 387:0 388:11070 389:11704 390:3934 391:14732 392:13458 393:10694 394:10004 395:17808 396:8116 397:15965 398:13400 399:11882 400:10262 #268
-7.2280623921714280319915368888672e-05 1:9362 2:8378 3:9736 4:932 5:1040 6:7896 7:14069 8:11516 9:9338 10:9236 11:9834 12:8942 13:10164 14:12164 15:13294 16:4590 17:2070 18:10979 19:11677 20:8430 21:14208 22:11302 23:11204 24:9034 25:12716 26:8502 27:9748 28:13686 29:8600 30:11506 31:5756 32:7258 33:10384 34:8024 35:12124 36:10173 37:9037 38:3522 39:8920 40:9164 41:10302 42:9632 43:9718 44:11658 45:9516 46:10644 47:7804 48:8652 49:6764 50:10892 51:12723 52:11178 53:9986 54:0 55:8452 56:17731 57:0 58:7696 59:12690 60:8622 61:11878 62:10519 63:3061 64:8846 65:7538 66:11408 67:9390 68:10380 69:13855 70:8168 71:11788 72:11267 73:11326 74:10234 75:12730 76:0 77:13962 78:10022 79:10868 80:5374 81:13204 82:9450 83:9274 84:9948 85:0 86:13239 87:9820 88:9916 89:13308 90:12242 91:12034 92:10616 93:9432 94:13510 95:12330 96:12857 97:0 98:14335 99:8944 100:0 101:11013 102:9700 103:11728 104:0 105:15548 106:12974 107:10536 108:11494 109:11394 110:11432 111:8324 112:8960 113:11802 114:10830 115:9740 116:14506 117:4536 118:10340 119:6834 120:1366 121:0 122:9958 123:6622 124:9700 125:11828 126:11650 127:2110 128:10400 129:8158 130:8810 131:9564 132:14245 133:15089 134:6410 135:11016 136:11084 137:7676 138:11050 139:7042 140:0 141:5280 142:13215 143:11108 144:10634 145:7436 146:13347 147:7154 148:13330 149:10681 150:13564 151:12202 152:6866 153:11644 154:0 155:10791 156:16270 157:11554 158:10272 159:2920 160:6116 161:12882 162:10232 163:15075 164:6968 165:14280 166:11130 167:0 168:8818 169:12900 170:6496 171:5368 172:7586 173:0 174:11120 175:13978 176:9666 177:13744 178:4452 179:14252 180:12122 181:10136 182:1418 183:9104 184:6134 185:9388 186:12413 187:9218 188:10174 189:0 190:12320 191:0 192:9816 193:12486 194:9250 195:5932 196:13736 197:12606 198:8374 199:7272 200:15765 201:9531 202:10000 203:3298 204:0 205:13995 206:12888 207:13873 208:9946 209:10156 210:12206 211:8080 212:644 213:10940 214:6380 215:8572 216:0 217:12542 218:15846 219:7002 220:7148 221:14496 222:9642 223:8024 224:11014 225:8560 226:12314 227:0 228:0 229:4960 230:9958 231:11052 232:10960 233:12903 234:11588 235:13380 236:9550 237:10438 238:13447 239:12422 240:0 241:11528 242:12110 243:6828 244:7676 245:11909 246:11514 247:0 248:13039 249:10640 250:10670 251:11700 252:13080 253:3540 254:0 255:10524 256:12582 257:4918 258:11376 259:14982 260:8092 261:12406 262:12256 263:10938 264:0 265:0 266:15218 267:10470 268:12415 269:9450 270:10860 271:12192 272:12272 273:0 274:11998 275:13533 276:0 277:11512 278:7248 279:3506 280:0 281:9164 282:7482 283:18704 284:7600 285:13689 286:11942 287:9610 288:12280 289:11239 290:11240 291:10407 292:0 293:12506 294:10734 295:0 296:11854 297:3324 298:11542 299:11198 300:11614 301:12540 302:0 303:9646 304:738 305:13846 306:38767 307:12168 308:10128 309:12520 310:8638 311:0 312:13602 313:11840 314:2732 315:10685 316:8380 317:16322 318:9440 319:14818 320:4215 321:8900 322:0 323:11856 324:5204 325:7094 326:5254 327:12446 328:5830 329:13564 330:15118 331:20171 332:0 333:9550 334:14290 335:0 336:7526 337:0 338:7048 339:11070 340:14373 341:0 342:14146 343:10518 344:2222 345:0 346:13470 347:12505 348:10744 349:11920 350:11550 351:1072 352:10532 353:2716 354:4666 355:14126 356:19400 357:9798 358:9890 359:9734 360:0 361:9364 362:3360 363:7466 364:15578 365:11012 366:11876 367:18369 368:3590 369:9882 370:5400 371:10448 372:10306 373:15438 374:11554 375:9774 376:9874 377:0 378:10090 379:12023 380:6794 381:5494 382:0 383:13344 384:0 385:12624 386:10864 387:0 388:11376 389:13800 390:6612 391:12654 392:10990 393:10900 394:8426 395:11642 396:10598 397:13371 398:11830 399:12671 400:10516 #306
-9.2856098542095917396099746810023e-05 1:7454 2:7556 3:7174 4:660 5:890 6:9790 7:10018 8:9340 9:8216 10:10512 11:9616 12:7276 13:9674 14:9184 15:10490 16:3880 17:1750 18:12316 19:8726 20:8242 21:11258 22:10548 23:13783 24:8320 25:13106 26:7792 27:10776 28:15397 29:11564 30:10076 31:6010 32:5694 33:9514 34:7578 35:10634 36:5912 37:7808 38:5158 39:10236 40:14363 41:9902 42:9308 43:9266 44:10924 45:9712 46:10016 47:7170 48:10824 49:9526 50:13821 51:11584 52:12112 53:11654 54:0 55:7590 56:12864 57:0 58:9317 59:13402 60:8550 61:12091 62:10756 63:2800 64:9004 65:7836 66:10988 67:10724 68:11612 69:10270 70:9876 71:10494 72:8152 73:14374 74:10764 75:10272 76:0 77:11444 78:10858 79:12018 80:6670 81:10238 82:10903 83:9947 84:9316 85:0 86:11314 87:6838 88:9976 89:10330 90:11224 91:11336 92:10356 93:11960 94:8298 95:12464 96:10524 97:0 98:10980 99:10434 100:0 101:10542 102:8868 103:12564 104:0 105:12352 106:11536 107:10584 108:11768 109:11030 110:10948 111:8744 112:7478 113:11473 114:9768 115:7798 116:13666 117:3848 118:10358 119:7398 120:1150 121:0 122:10214 123:4828 124:9278 125:11373 126:8640 127:2094 128:11278 129:6784 130:10042 131:10804 132:10630 133:12642 134:5404 135:14135 136:9858 137:8962 138:10296 139:7988 140:0 141:5934 142:10926 143:10084 144:10650 145:6634 146:10506 147:9263 148:12560 149:9378 150:10918 151:10968 152:8010 153:10172 154:0 155:10894 156:12256 157:10706 158:9986 159:5432 160:6898 161:12380 162:8850 163:9552 164:4866 165:11370 166:9966 167:0 168:10508 169:12748 170:5734 171:4326 172:4786 173:0 174:10256 175:10866 176:11096 177:11022 178:4320 179:11798 180:11042 181:10564 182:1844 183:9630 184:5952 185:10102 186:11982 187:10270 188:9148 189:0 190:11410 191:0 192:8326 193:12060 194:9726 195:6622 196:10892 197:12496 198:6882 199:6918 200:11502 201:9674 202:10640 203:3478 204:0 205:10836 206:12450 207:13110 208:9076 209:10636 210:8928 211:7998 212:558 213:11056 214:4940 215:11350 216:0 217:14479 218:11580 219:7308 220:8488 221:11828 222:12733 223:6328 224:10818 225:8754 226:12802 227:0 228:0 229:5172 230:10388 231:12168 232:9894 233:10858 234:13398 235:11304 236:10302 237:12122 238:12119 239:12620 240:0 241:11427 242:10318 243:6580 244:7636 245:12913 246:11272 247:0 248:10828 249:8966 250:9900 251:11472 252:10205 253:2482 254:0 255:7234 256:11398 257:4910 258:11608 259:11900 260:10460 261:11706 262:9810 263:12204 264:0 265:0 266:11626 267:12274 268:12086 269:8966 270:10320 271:10964 272:11642 273:0 274:12254 275:11608 276:0 277:11652 278:8025 279:1910 280:0 281:8006 282:8922 283:11314 284:10492 285:14101 286:11940 287:10094 288:11688 289:11292 290:11594 291:10502 292:0 293:13094 294:11936 295:0 296:11442 297:3608 298:9962 299:8502 300:9840 301:10008 302:0 303:9244 304:1374 305:11238 306:11070 307:10835 308:9752 309:11997 310:7718 311:0 312:8176 313:11396 314:5140 315:9380 316:6068 317:11332 318:8311 319:12694 320:2786 321:9536 322:0 323:12296 324:4288 325:6376 326:5820 327:13494 328:5858 329:10678 330:10192 331:11643 332:0 333:6720 334:13118 335:0 336:6816 337:0 338:7796 339:37017 340:10977 341:0 342:10608 343:10486 344:1588 345:0 346:10284 347:10836 348:9316 349:13687 350:14052 351:714 352:9150 353:2498 354:4408 355:12288 356:12486 357:9760 358:8924 359:9620 360:0 361:11882 362:2732 363:5454 364:9878 365:10816 366:11386 367:10506 368:4276 369:10718 370:5130 371:10850 372:11690 373:14085 374:11512 375:7926 376:11364 377:0 378:10202 379:13128 380:8138 381:5769 382:0 383:10152 384:0 385:9654 386:11285 387:0 388:10218 389:10912 390:9848 391:12126 392:12333 393:11250 394:11472 395:10384 396:9310 397:10554 398:10064 399:12044 400:11260 #339
-5.7009244035727954708937803562918e-05 1:8206 2:9720 3:9841 4:866 5:1182 6:9620 7:14372 8:13634 9:12216 10:13074 11:9344 12:9124 13:12338 14:11198 15:13042 16:3798 17:2698 18:10812 19:10768 20:8738 21:12032 22:11672 23:12010 24:12992 25:13114 26:10630 27:14022 28:11224 29:9242 30:13548 31:5946 32:7184 33:8508 34:10688 35:10986 36:7658 37:9986 38:4292 39:10834 40:9362 41:12250 42:10458 43:8372 44:9922 45:7848 46:12626 47:5382 48:10900 49:7222 50:11264 51:12636 52:13169 53:11880 54:0 55:9528 56:12612 57:0 58:7654 59:12208 60:10798 61:11552 62:10438 63:1650 64:10026 65:9046 66:11522 67:12818 68:11632 69:11068 70:10294 71:12448 72:12276 73:11206 74:11752 75:12096 76:0 77:12886 78:13426 79:12479 80:5952 81:13938 82:9474 83:12150 84:12814 85:0 86:11140 87:8446 88:12556 89:11474 90:12155 91:10856 92:10336 93:9982 94:10632 95:11044 96:14242 97:0 98:12646 99:11460 100:0 101:10506 102:12819 103:12612 104:0 105:13063 106:11538 107:12160 108:11860 109:10570 110:11980 111:8656 112:11918 113:11360 114:13602 115:9612 116:12240 117:3098 118:9356 119:11620 120:1434 121:0 122:13064 123:5640 124:10312 125:12418 126:10548 127:2914 128:11434 129:7976 130:12524 131:11700 132:12816 133:13198 134:5490 135:11312 136:14030 137:11738 138:9646 139:7102 140:0 141:6540 142:11098 143:12210 144:10104 145:7086 146:12824 147:11046 148:11016 149:9796 150:14236 151:12116 152:8256 153:13028 154:0 155:13302 156:15478 157:8128 158:10235 159:3024 160:7362 161:10114 162:10463 163:13056 164:7332 165:12824 166:11749 167:0 168:10830 169:10686 170:6256 171:5314 172:3878 173:0 174:14515 175:12899 176:10922 177:11574 178:6299 179:11604 180:11018 181:12624 182:1932 183:6648 184:8032 185:13360 186:10840 187:10842 188:11202 189:0 190:10634 191:0 192:9320 193:11676 194:10242 195:8049 196:13520 197:10748 198:8800 199:8752 200:13837 201:10702 202:14402 203:3146 204:0 205:13804 206:13044 207:11878 208:11488 209:12288 210:13274 211:9568 212:610 213:11482 214:6124 215:11815 216:0 217:10698 218:13518 219:6804 220:9082 221:11114 222:13327 223:8014 224:10408 225:11193 226:12780 227:0 228:0 229:5253 230:12768 231:13670 232:11740 233:12219 234:11964 235:12080 236:12384 237:11866 238:11730 239:12048 240:0 241:10682 242:15514 243:5880 244:10211 245:9922 246:13088 247:0 248:12179 249:12891 250:11318 251:11932 252:11966 253:2112 254:0 255:9968 256:12688 257:7610 258:12840 259:11280 260:8604 261:12310 262:12730 263:10112 264:0 265:0 266:12316 267:9592 268:10694 269:11778 270:12276 271:13346 272:11708 273:0 274:13190 275:11639 276:0 277:11430 278:7714 279:2080 280:0 281:6212 282:10591 283:11732 284:9308 285:9332 286:10076 287:11860 288:11402 289:11718 290:11980 291:10592 292:0 293:9928 294:12830 295:0 296:12036 297:3414 298:13372 299:11062 300:9832 301:11646 302:0 303:14101 304:1703 305:13520 306:10900 307:12578 308:12480 309:12689 310:7464 311:0 312:8704 313:10276 314:4466 315:9474 316:8106 317:11630 318:8146 319:13828 320:3390 321:13306 322:0 323:11504 324:2882 325:8664 326:5278 327:11746 328:5498 329:11714 330:11070 331:12520 332:0 333:8382 334:14620 335:0 336:6175 337:0 338:8590 339:11250 340:11894 341:0 342:12948 343:14265 344:2464 345:0 346:11386 347:11646 348:9200 349:10750 350:11228 351:1270 352:10766 353:2876 354:5376 355:11252 356:12702 357:11668 358:11034 359:10330 360:0 361:11774 362:3234 363:8552 364:13304 365:11296 366:11670 367:14734 368:4860 369:10680 370:4796 371:12280 372:10962 373:12130 374:11580 375:10278 376:8858 377:0 378:10342 379:12892 380:10080 381:3926 382:0 383:11085 384:0 385:12432 386:12522 387:0 388:11282 389:11126 390:8756 391:10832 392:10958 393:36141 394:9798 395:13480 396:9154 397:11263 398:11965 399:11902 400:12884 #393
5.0628131015168688507620264882547e-05 1:5138 2:3914 3:6012 4:486 5:528 6:2728 7:12846 8:7368 9:7758 10:9714 11:10048 12:4966 13:8440 14:8860 15:14130 16:7308 17:666 18:20544 19:6870 20:4896 21:14646 22:8732 23:20142 24:11744 25:9846 26:3850 27:14744 28:14351 29:2658 30:13760 31:4478 32:2460 33:11366 34:4980 35:20065 36:8425 37:4198 38:4804 39:4014 40:4436 41:13518 42:8124 43:8410 44:18081 45:8084 46:10234 47:10561 48:9407 49:3004 50:23934 51:15146 52:11394 53:10996 54:0 55:5446 56:23876 57:0 58:9594 59:20512 60:9906 61:16441 62:17237 63:2484 64:13186 65:7066 66:17284 67:13065 68:17566 69:21975 70:15930 71:19128 72:6800 73:9010 74:11369 75:16651 76:0 77:13312 78:10934 79:7926 80:6280 81:17207 82:14212 83:4974 84:4928 85:0 86:9616 87:12555 88:7264 89:18723 90:14445 91:10706 92:9512 93:7206 94:17772 95:16260 96:8596 97:0 98:18019 99:5126 100:0 101:16863 102:8258 103:10541 104:0 105:17396 106:11692 107:6978 108:12448 109:7320 110:19342 111:3588 112:4682 113:16926 114:12466 115:6184 116:21600 117:6238 118:11386 119:7712 120:818 121:0 122:18296 123:5488 124:8611 125:17966 126:9236 127:714 128:19388 129:8662 130:10724 131:18228 132:14842 133:18500 134:6662 135:18320 136:6404 137:3030 138:6800 139:11444 140:0 141:8784 142:16857 143:20391 144:19054 145:7972 146:13758 147:5676 148:13148 149:6840 150:13406 151:14016 152:2722 153:6626 154:0 155:18699 156:18766 157:18739 158:12316 159:1216 160:2860 161:20486 162:8004 163:17020 164:2818 165:14074 166:16428 167:0 168:7914 169:17266 170:5026 171:2912 172:9962 173:0 174:8980 175:23312 176:13472 177:24083 178:2780 179:15544 180:18234 181:9127 182:1546 183:9580 184:6126 185:14526 186:45829 187:9826 188:6998 189:0 190:13520 191:0 192:6598 193:21856 194:5160 195:5350 196:11532 197:15608 198:7838 199:4062 200:23350 201:16798 202:14888 203:6364 204:0 205:13072 206:11562 207:18885 208:12577 209:10952 210:12016 211:2992 212:174 213:22891 214:8844 215:11392 216:0 217:21731 218:17676 219:8426 220:12584 221:21138 222:6842 223:13168 224:15070 225:14304 226:18538 227:0 228:0 229:7496 230:10576 231:13708 232:9350 233:18882 234:12438 235:15918 236:10077 237:17266 238:23287 239:17440 240:0 241:21685 242:13244 243:7822 244:6636 245:7386 246:12228 247:0 248:10118 249:4918 250:12764 251:19480 252:14148 253:4136 254:0 255:3460 256:18454 257:4800 258:12772 259:14494 260:4996 261:10570 262:12288 263:19748 264:0 265:0 266:12062 267:11496 268:18342 269:13056 270:22866 271:19506 272:14822 273:0 274:9392 275:10482 276:0 277:18630 278:12040 279:6450 280:0 281:11416 282:17722 283:23928 284:4168 285:18311 286:19165 287:9578 288:22040 289:23838 290:16440 291:8418 292:0 293:17820 294:13612 295:0 296:19966 297:5184 298:11548 299:9616 300:16954 301:9348 302:0 303:18250 304:1202 305:11201 306:12413 307:7314 308:11786 309:12958 310:12414 311:0 312:14988 313:17164 314:2640 315:10586 316:7520 317:18391 318:9860 319:12942 320:3022 321:11316 322:0 323:16768 324:10064 325:7420 326:5988 327:17490 328:9524 329:21876 330:17565 331:20696 332:0 333:8188 334:12464 335:0 336:6128 337:0 338:10728 339:11982 340:19698 341:0 342:13724 343:13642 344:2296 345:0 346:25508 347:12756 348:17494 349:11410 350:15155 351:1394 352:11166 353:1710 354:2166 355:16122 356:21967 357:17562 358:7704 359:9166 360:0 361:8846 362:2930 363:2204 364:18829 365:19397 366:8550 367:18069 368:6790 369:14118 370:4528 371:21118 372:15764 373:15526 374:10822 375:7150 376:3112 377:0 378:16356 379:22564 380:3268 381:6104 382:0 383:17586 384:0 385:11884 386:18476 387:0 388:13620 389:16080 390:2178 391:17635 392:14620 393:10840 394:9174 395:20612 396:8310 397:18464 398:14713 399:14178 400:9872 #186
-4.1599445380418424169331748085909e-05 1:8364 2:7128 3:7022 4:714 5:802 6:9466 7:13016 8:9576 9:8006 10:11900 11:6986 12:8082 13:9058 14:11226 15:11672 16:3962 17:2240 18:16552 19:7700 20:6935 21:13292 22:9692 23:13602 24:8622 25:10844 26:6126 27:9102 28:12656 29:9316 30:9860 31:6370 32:5200 33:12289 34:7410 35:14766 36:7004 37:7116 38:6326 39:9100 40:11942 41:9412 42:7686 43:8158 44:11600 45:9816 46:11217 47:7176 48:12612 49:9354 50:16720 51:11788 52:11158 53:11472 54:0 55:9614 56:14986 57:0 58:8670 59:13440 60:9494 61:12988 62:14410 63:3216 64:9914 65:6578 66:12634 67:12122 68:11562 69:12946 70:11013 71:11694 72:8046 73:11814 74:9258 75:12618 76:0 77:11538 78:11094 79:10080 80:5626 81:10838 82:11962 83:9266 84:12550 85:0 86:14313 87:9368 88:9006 89:14010 90:10945 91:11664 92:9426 93:8806 94:11200 95:15582 96:11820 97:0 98:13543 99:8094 100:0 101:12740 102:10514 103:11362 104:0 105:15018 106:13524 107:8310 108:11334 109:8678 110:11570 111:8270 112:6938 113:12254 114:9886 115:6814 116:16693 117:3050 118:13317 119:6070 120:630 121:0 122:12564 123:5406 124:8226 125:11878 126:10030 127:2274 128:12086 129:6548 130:8070 131:11344 132:13178 133:13282 134:5526 135:12536 136:8904 137:9942 138:8502 139:8438 140:0 141:6653 142:11840 143:13012 144:9912 145:7904 146:13014 147:8552 148:15428 149:10116 150:12666 151:11818 152:5402 153:9156 154:0 155:13092 156:14396 157:14128 158:8320 159:4738 160:4924 161:13742 162:8012 163:11908 164:4234 165:13932 166:11630 167:0 168:9344 169:12236 170:5186 171:3930 172:6240 173:0 174:10484 175:13976 176:9974 177:13204 178:3178 179:14961 180:10726 181:11717 182:1360 183:7870 184:5926 185:12811 186:15155 187:11989 188:9122 189:0 190:11494 191:0 192:9574 193:15552 194:7372 195:5196 196:12270 197:13858 198:6968 199:5846 200:14719 201:10536 202:9758 203:3198 204:0 205:12196 206:13474 207:15436 208:9754 209:10258 210:10052 211:7658 212:408 213:12761 214:5658 215:12264 216:0 217:16978 218:13178 219:8766 220:9618 221:13686 222:13350 223:7379 224:12148 225:11793 226:15106 227:0 228:0 229:6000 230:10320 231:11862 232:8542 233:15008 234:12704 235:12422 236:12318 237:12317 238:12302 239:14364 240:0 241:12870 242:13268 243:7228 244:6616 245:11517 246:11932 247:0 248:13561 249:7492 250:10592 251:13331 252:11148 253:2290 254:0 255:5428 256:12824 257:4394 258:11682 259:12868 260:8962 261:11904 262:8040 263:14004 264:0 265:0 266:13307 267:12468 268:13554 269:10414 270:13560 271:12088 272:13618 273:0 274:12809 275:12532 276:0 277:12522 278:7194 279:2838 280:0 281:10156 282:11653 283:12932 284:7358 285:16002 286:15210 287:11058 288:14016 289:13182 290:14354 291:13030 292:0 293:13878 294:12735 295:0 296:12980 297:3032 298:9674 299:9460 300:11165 301:11280 302:0 303:12032 304:986 305:13990 306:11550 307:10189 308:9706 309:10528 310:10466 311:0 312:9810 313:11492 314:4578 315:8436 316:8044 317:12034 318:7826 319:14158 320:2688 321:8880 322:0 323:12310 324:3740 325:5644 326:6114 327:12932 328:6678 329:13928 330:10174 331:13526 332:0 333:8115 334:16910 335:0 336:6010 337:0 338:7846 339:14052 340:14052 341:0 342:11356 343:11528 344:1818 345:0 346:14588 347:10588 348:12364 349:14782 350:39539 351:792 352:10270 353:1800 354:2838 355:13210 356:15672 357:11458 358:7866 359:9690 360:0 361:10416 362:2882 363:5022 364:10962 365:14138 366:10612 367:13080 368:4636 369:10642 370:5027 371:13939 372:11456 373:15818 374:13141 375:10370 376:8146 377:0 378:11688 379:15329 380:7142 381:6120 382:0 383:12088 384:0 385:10113 386:13672 387:0 388:11260 389:10308 390:7780 391:13056 392:11612 393:11228 394:10686 395:12312 396:8740 397:12506 398:11232 399:13464 400:11248 #350
